\data\
ngram 1=10017
ngram 2=42041
ngram 3=59318

\1-grams:
-4.659997	<unk>	0
0	<s>	-1.0194387
-0.99965763	</s>	0
-4.3469048	naqueles	-0.14849393
-3.2929378	dias	-0.22533584
-2.5184495	muito	-0.23788491
-4.240604	poucas	-0.13899289
-3.0744755	pessoas	-0.2620727
-3.6985753	tinham	-0.12360565
-3.4084098	alguma	-0.31780386
-3.6498137	ideia	-0.2627886
-2.6133058	sobre	-0.49033424
-4.3469048	astronomia	-0.11167673
-3.8164191	perdido	-0.30919927
-4.3469048	porém	-0.11167673
-3.2541633	feliz	-0.3449493
-4.519169	compartilhe	-0.11167673
-1.9484303	com	-0.49945837
-2.8646412	todos	-0.38122872
-3.0623827	depois	-0.50591284
-2.1006868	da	-0.27701476
-3.6059785	dança	-0.19961303
-2.9570067	eles	-0.21713793
-3.2185686	foram	-0.11471301
-4.240604	direto	-0.1116767
-1.8982385	para	-0.44337732
-3.4357057	casa	-0.26343167
-4.519169	nadia	-0.11167673
-3.8164191	teve	-0.12512007
-4.519169	reclamações	-0.11167673
-4.240604	suficientes	-0.1116767
-1.51328	de	-0.32529286
-3.3584814	todas	-0.6769507
-2.5116856	as	-0.28791702
-4.519169	queixas	-0.11167673
-4.519169	sofia	-0.11167673
-2.7638395	eu	-0.27777117
-4.519169	lidei	-0.11167673
-3.2929378	muitas	-0.30014068
-3.566165	grandes	-0.16356568
-4.519169	promoções	-0.11167673
-2.002065	no	-0.38462713
-2.9477496	meu	-0.20413892
-3.1129158	tempo	-0.31320307
-4.519169	tinhas	-0.11167673
-3.273118	cinco	-0.1885405
-3.273118	anos	-0.38590765
-3.8900068	idade	-0.11167673
-2.8497708	quando	-0.27401382
-3.2018085	te	-0.15252568
-4.240604	conheci	-0.11167673
-2.0514803	um	-0.32066426
-3.3355167	homem	-0.20042145
-1.8690069	o	-0.32381818
-2.1473982	está	-0.46054792
-4.3469048	abrindo	-0.1116767
-2.166676	uma	-0.33806878
-3.1550918	grande	-0.1677426
-4.0901747	pilha	-0.4229067
-4.519169	cocos	-0.11167673
-3.0623827	dois	-0.19642484
-4.519169	lutadores	-0.11167673
-4.240604	seguram	-0.42984223
-3.8164191	mãos	-0.19155093
-1.7472152	e	-0.2511365
-4.3469048	juntam	-0.11167673
-4.519169	cabeças	-0.11167673
-2.016845	é	-0.39715666
-3.0744755	melhor	-0.21924463
-2.976135	ser	-0.194594
-2.996145	verde	-0.37139943
-4.519169	crescer	-0.11167673
-2.0031042	do	-0.32694864
-1.9681352	que	-0.40982014
-4.0901747	maduro	-0.11167673
-4.519169	podre	-0.11167673
-4.240604	ana	-0.1116767
-4.519169	júlio	-0.11167673
-4.240604	juliana	-0.14849393
-4.240604	josé	-0.11167673
-2.337181	ao	-0.4048878
-3.8164191	evento	-0.13682957
-2.0147023	na	-0.47753048
-4.0901747	quinta	-0.13339049
-1.8674815	a	-0.2800502
-3.3137057	outra	-0.22880004
-3.9786592	melhoria	-0.13339049
-3.6985753	área	-0.2187093
-4.3469048	rastreamento	-0.11167673
-4.0901747	varrendo	-0.30575114
-4.0901747	chão	-0.18249929
-4.519169	separando	-0.11167673
-4.519169	mercadorias	-0.11167673
-4.3469048	etc	-0.16814321
-2.9386854	tudo	-0.38136524
-2.7822144	bem	-0.27514505
-3.5296967	comer	-0.21090813
-2.9477496	fora	-0.53264964
-4.519169	mapeie	-0.11167673
-2.5050254	os	-0.18610062
-3.6059785	olhos	-0.18282703
-4.519169	piscando	-0.11167673
-4.3469048	segredo	-0.13899289
-2.9298067	aqui	-0.3896062
-3.8164191	presente	-0.22715862
-4.240604	centenas	-0.3259967
-3.5296967	devem	-0.29283807
-3.0997205	ter	-0.19812743
-3.7535124	visto	-0.12707502
-4.3469048	tomado	-0.11167673
-2.2096765	por	-0.40951627
-4.0901747	estrela	-0.12969531
-4.519169	cadente	-0.11167673
-3.7535124	menina	-0.16667956
-1.7380767	em	-0.58180547
-3.7535124	casaco	-0.13339049
-2.880039	azul	-0.3397745
-3.2541633	sentado	-0.3687932
-3.8164191	frente	-0.21980394
-3.9786592	horizonte	-0.24225251
-4.3469048	seattle	-0.11167673
-4.519169	vencedores	-0.11167673
-3.6498137	desta	-0.12239794
-4.519169	modalidade	-0.11167673
-4.519169	passarão	-0.11167673
-4.240604	fase	-0.11167673
-4.519169	estadual	-0.11167673
-2.557661	como	-0.27482122
-4.519169	representantes	-0.11167673
-4.3469048	catalunha	-0.1116767
-3.6985753	descendo	-0.40178305
-4.240604	penhasco	-0.20574814
-3.8900068	oceano	-0.22662568
-2.2096765	não	-0.34979665
-2.2964861	se	-0.22147895
-4.3469048	preocupe	-0.11167673
-2.6007671	ele	-0.28618687
-4.0901747	ficará	-0.13339049
-4.519169	arranhar	-0.11167673
-3.496055	precisa	-0.23352419
-2.8571424	apenas	-0.18163176
-3.8164191	começar	-0.23069014
-2.896003	das	-0.14970514
-3.464833	diferentes	-0.29298028
-4.519169	infraestruturas	-0.11167673
-3.6059785	fazem	-0.1199002
-3.3355167	parte	-0.3362014
-3.9786592	ação	-0.11167673
-4.519169	detalhe	-0.11167673
-2.7578833	dos	-0.13812882
-3.9786592	pontos	-0.11167673
-4.519169	singulares	-0.11167673
-4.519169	acariciou	-0.11167673
-2.6486282	sua	-0.18401964
-4.240604	barba	-0.1116767
-3.3827286	laranja	-0.29057735
-3.4084098	brilhante	-0.34411564
-4.240604	luke	-0.1116767
-3.8164191	sou	-0.19548479
-4.0901747	irmã	-0.22101875
-3.8164191	equipe	-0.19796216
-3.8900068	ciclistas	-0.11167673
-3.3355167	trabalhando	-0.32101387
-4.0901747	duro	-0.11167673
-3.2541633	parece	-0.21132465
-4.0901747	moto	-0.20574814
-4.3469048	veloz	-0.16814321
-3.4357057	jovem	-0.2033689
-2.5845928	estava	-0.20957895
-2.4024785	mais	-0.27417338
-3.6985753	certo	-0.33136103
-3.1856713	disso	-0.5017278
-3.566165	qualquer	-0.148753
-3.496055	coisa	-0.25846028
-3.566165	mundo	-0.18582125
-4.0901747	vejo	-0.13339049
-3.1265242	há	-0.18560423
-3.6059785	semana	-0.22950363
-4.519169	basta	-0.1116767
-4.519169	levantá	-0.11167673
-3.2018085	lo	-0.33183166
-3.8900068	levá	-0.49678904
-3.6498137	embora	-0.33136103
-3.0280023	estavam	-0.13162486
-4.3469048	dadas	-0.1116767
-2.5218716	estão	-0.3100188
-3.7535124	chegando	-0.18603612
-3.9786592	canto	-0.1116767
-3.9786592	corrida	-0.18989463
-3.7535124	menino	-0.15074097
-3.1265242	vestindo	-0.3761661
-3.9786592	jeans	-0.11167673
-3.0506175	andando	-0.500327
-3.9786592	skate	-0.18360735
-3.8164191	guitarra	-0.2279974
-4.0901747	quebrou	-0.15624729
-2.9477496	ela	-0.2171236
-3.6985753	podia	-0.14883487
-3.8900068	tocar	-0.12059256
-2.6532526	isso	-0.368568
-2.6133058	seu	-0.25051036
-3.566165	filho	-0.19469152
-2.7348433	disse	-0.6001178
-4.3469048	anjo	-0.11167673
-4.0901747	aparentemente	-0.11167673
-4.3469048	maioria	-0.11167673
-4.240604	sentenças	-0.1116767
-2.5926046	foi	-0.23059472
-4.240604	escrita	-0.11167673
-4.519169	nerds	-0.11167673
-4.519169	cientistas	-0.11167673
-3.8900068	árvores	-0.28138158
-4.240604	antigas	-0.1116767
-4.519169	lincoln	-0.11167673
-3.9786592	louro	-0.11167673
-3.2929378	novo	-0.21603008
-4.240604	escova	-0.1116767
-2.912576	seus	-0.17040728
-4.240604	dentes	-0.13899289
-4.0901747	espelho	-0.24225251
-3.9786592	galinhas	-0.13339049
-2.6262174	são	-0.19467491
-4.519169	adoráveis	-0.11167673
-3.7535124	quero	-0.12285042
-4.519169	encorajar	-0.11167673
-3.8164191	acho	-0.27714342
-4.519169	torci	-0.11167673
-4.3469048	orgulho	-0.11167673
-4.240604	belo	-0.11167673
-2.7348433	mas	-0.2640632
-3.496055	medo	-0.32634407
-3.496055	ouvir	-0.2479177
-3.6498137	palavras	-0.16291568
-4.3469048	sabedoria	-0.1116767
-3.8164191	si	-0.30577388
-3.3137057	quase	-0.14589535
-4.240604	totalmente	-0.11167673
-4.519169	enterrada	-0.11167673
-3.8164191	areia	-0.19424194
-3.1129158	este	-0.18363161
-3.6059785	tipo	-0.60158587
-4.0901747	diferente	-0.3259967
-3.8900068	pesquisa	-0.13339049
-3.496055	cidade	-0.21726727
-3.7535124	asiática	-0.11167673
-3.9786592	movimentada	-0.12707502
-3.1129158	duas	-0.26579574
-3.5296967	mulheres	-0.1686853
-3.7535124	andam	-0.13682957
-3.8900068	conversam	-0.12969531
-3.9786592	juntas	-0.4229067
-3.4084098	caminho	-0.27603158
-4.240604	oriental	-0.1116767
-3.4357057	mulher	-0.17768908
-4.519169	quimonos	-0.11167673
-3.464833	azuis	-0.24037534
-3.6498137	brancos	-0.21822079
-3.9786592	sentados	-0.30919927
-3.2360013	juntos	-0.41605717
-3.4357057	estou	-0.1651519
-4.519169	meramente	-0.11167673
-3.4084098	sendo	-0.13483834
-3.6498137	pouco	-0.115475416
-4.519169	circunspecto	-0.11167673
-4.240604	centavo	-0.13339049
-3.6985753	sábio	-0.29917634
-4.519169	quilo	-0.11167673
-4.240604	tolo	-0.12512007
-3.2541633	encontrar	-0.29097342
-4.519169	esperanças	-0.11167673
-4.519169	saudáveis	-0.11167673
-4.519169	mostre	-0.11167673
-2.7698784	me	-0.15926944
-3.566165	filmes	-0.28572342
-3.3137057	tocando	-0.31152964
-4.0901747	apressar	-0.13899289
-3.9786592	gato	-0.1772256
-3.7535124	sentou	-0.5291124
-3.6985753	cerca	-0.35804442
-4.3469048	criatura	-0.1116767
-4.519169	moveu	-0.1116767
-4.240604	ondas	-0.11167673
-4.519169	peristálticas	-0.11167673
-3.8900068	corpo	-0.22101875
-3.7535124	estranho	-0.22926728
-4.519169	musculoso	-0.11167673
-3.6498137	cachorro	-0.18292916
-3.1265242	correndo	-0.41181877
-2.80799	pela	-0.25524855
-3.4357057	água	-0.25705484
-4.519169	examina	-0.11167673
-3.9786592	alimento	-0.13339049
-3.8164191	cozinha	-0.18937007
-3.9786592	floresta	-0.25690067
-4.519169	aposto	-0.11167673
-4.519169	convocação	-0.11167673
-3.566165	criança	-0.17771913
-3.3827286	brincando	-0.6158902
-4.3469048	monte	-0.11167673
-3.7535124	neve	-0.24412511
-3.8900068	rua	-0.19898859
-4.0901747	salvou	-0.13899289
-3.496055	vida	-0.20221318
-3.3827286	homens	-0.22445238
-3.7535124	naquele	-0.27365884
-4.240604	transporte	-0.11167673
-3.3355167	parecia	-0.18756096
-4.519169	oração	-0.11167673
-4.519169	cigana	-0.11167673
-3.6059785	bons	-0.2170997
-3.6498137	alunos	-0.22662568
-4.519169	avançados	-0.11167673
-3.496055	vou	-0.15419646
-3.273118	sair	-0.35901994
-3.3137057	seja	-0.114998765
-4.3469048	impaciente	-0.11167673
-4.0901747	repetiu	-0.11167673
-3.3137057	mesmo	-0.23712477
-4.3469048	atraente	-0.11167673
-4.519169	patinação	-0.11167673
-4.240604	gelo	-0.12969531
-3.6985753	preciso	-0.18342727
-3.6059785	mesa	-0.24871488
-4.3469048	junta	-0.11167673
-4.519169	spa	-0.11167673
-4.0901747	rindo	-0.12969531
-3.6985753	luz	-0.24538705
-4.240604	esquiadores	-0.1116767
-3.8164191	montanha	-0.21337791
-4.3469048	pinta	-0.11167673
-4.519169	desenho	-0.11167673
-4.240604	vaso	-0.13899289
-4.240604	veja	-0.13137104
-4.3469048	manuel	-0.11167673
-3.8900068	atravessando	-0.26677254
-3.566165	pequena	-0.13335396
-4.0901747	ajudando	-0.13339049
-4.519169	jardinagem	-0.11167673
-4.519169	atue	-0.11167673
-4.240604	nessas	-0.1116767
-4.519169	ordens	-0.11167673
-3.8900068	velocidade	-0.25690067
-4.519169	calibrar	-0.11167673
-3.6985753	sistema	-0.23213188
-4.519169	captura	-0.11167673
-3.6985753	movimento	-0.1715117
-4.240604	favor	-0.11489772
-3.7535124	faça	-0.16115087
-4.240604	t	-0.1116767
-4.519169	pose	-0.11167673
-3.8164191	existem	-0.1199002
-3.3827286	muitos	-0.117004246
-4.519169	tipos	-0.11167673
-4.240604	materiais	-0.1116767
-4.519169	compostos	-0.11167673
-3.8900068	gostaria	-0.5690348
-3.2929378	algumas	-0.21047394
-3.2360013	coisas	-0.24863595
-4.240604	fossem	-0.11167673
-2.9211059	algo	-0.3160053
-3.2185686	dentro	-0.5200809
-4.240604	cilindro	-0.12707502
-4.519169	desenroscando	-0.11167673
-4.240604	topo	-0.28950244
-4.240604	postes	-0.14849393
-4.519169	apagados	-0.11167673
-3.3355167	realmente	-0.15021065
-3.8900068	diz	-0.2544573
-3.6059785	tenho	-0.19941834
-3.6059785	trabalhar	-0.13498381
-3.3584814	neste	-0.12872809
-4.240604	sábado	-0.1116767
-3.4357057	boa	-0.17002462
-3.8900068	suficiente	-0.2989199
-3.9786592	mim	-0.20147489
-4.519169	entrevistados	-0.11167673
-4.519169	fox	-0.11167673
-4.519169	news	-0.11167673
-4.519169	paralaxe	-0.11167673
-4.519169	dica	-0.11167673
-4.519169	profundidade	-0.11167673
-4.519169	monocular	-0.11167673
-4.519169	ajudaria	-0.11167673
-4.519169	leitor	-0.11167673
-3.6059785	entender	-0.21404642
-4.0901747	método	-0.1116767
-3.566165	pegou	-0.2816006
-3.2018085	dinheiro	-0.3322912
-4.240604	contou	-0.11167673
-4.519169	pierre	-0.11167673
-3.6498137	decidiu	-0.15099548
-4.519169	pesquisar	-0.11167673
-4.3469048	cultura	-0.11167673
-4.3469048	gay	-0.11167673
-3.566165	qual	-0.17061515
-3.566165	problema	-0.2058933
-3.1701124	todo	-0.45648873
-4.0901747	espero	-0.14303936
-4.519169	goste	-0.11167673
-3.6498137	ar	-0.1614989
-3.9786592	livre	-0.12707502
-4.240604	lavar	-0.11167673
-3.6059785	carro	-0.20394549
-3.8900068	sabão	-0.19423142
-4.519169	vibração	-0.11167673
-4.519169	tremulosa	-0.11167673
-4.0901747	nota	-0.1116767
-3.4357057	quatro	-0.12327894
-3.9786592	garotos	-0.13587156
-4.3469048	equipes	-0.1116767
-4.3469048	lacrosse	-0.11167673
-3.464833	correm	-0.26883924
-2.8353925	pelo	-0.19387683
-3.566165	campo	-0.26104438
-3.2360013	durante	-0.5340215
-3.496055	jogo	-0.31233385
-3.4357057	lugar	-0.23872082
-3.8900068	fugir	-0.50208795
-3.496055	dessa	-0.16356568
-4.240604	disputa	-0.1116767
-3.8164191	deixa	-0.12707502
-3.566165	daqui	-0.5368501
-3.8900068	lua	-0.13498381
-3.1265242	esta	-0.22182645
-3.496055	noite	-0.2593739
-4.0901747	calça	-0.12707502
-3.566165	preta	-0.24846992
-3.6985753	subindo	-0.17108919
-3.9786592	parede	-0.21647319
-3.8164191	pedra	-0.16736008
-3.8900068	prestes	-0.7308722
-4.519169	espirrar	-0.11167673
-3.566165	lado	-0.31023204
-3.6059785	mãe	-0.23922552
-3.8900068	precisamos	-0.22662568
-4.519169	adiar	-0.11167673
-2.996145	essa	-0.14645895
-4.240604	jornada	-0.11167673
-3.6498137	pessoa	-0.17565386
-3.9786592	sinal	-0.17207561
-4.240604	festival	-0.12707502
-3.9786592	fale	-0.12360565
-3.7535124	palavra	-0.18096556
-4.519169	servo	-0.11167673
-3.2018085	será	-0.117600225
-4.3469048	curado	-0.11167673
-4.3469048	maçãs	-0.11167673
-4.519169	vendidas	-0.11167673
-2.872272	lá	-0.4765696
-4.0901747	deliciosas	-0.13899289
-3.9786592	sacos	-0.22101875
-4.519169	plástico	-0.11167673
-4.3469048	acabaram	-0.11167673
-3.464833	meio	-0.15721518
-3.9786592	ambiente	-0.17800686
-4.519169	memes	-0.11167673
-4.519169	banais	-0.11167673
-3.8164191	escreveu	-0.12059256
-3.6498137	livro	-0.2235756
-4.3469048	quantos	-0.1116767
-4.3469048	presentes	-0.11167673
-3.5296967	debaixo	-0.5220487
-3.8900068	árvore	-0.29917634
-2.9211059	agora	-0.41280848
-4.3469048	alvo	-0.11167673
-4.0901747	dono	-0.12969531
-4.240604	segredos	-0.11167673
-4.240604	agricultura	-0.42984223
-3.6059785	esses	-0.12360565
-4.519169	impactos	-0.11167673
-3.566165	serão	-0.12059256
-4.519169	basicamente	-0.11167673
-4.519169	terras	-0.11167673
-3.8900068	rochas	-0.1116767
-4.3469048	encosta	-0.14849393
-3.566165	posso	-0.15786067
-3.6985753	pegar	-0.2136628
-4.240604	emprestado	-0.1116767
-3.2185686	alguns	-0.12416854
-4.240604	desenhos	-0.13899289
-3.8900068	ouvindo	-0.12969531
-3.8900068	garotas	-0.19961303
-3.8164191	pai	-0.16249113
-4.519169	ultraje	-0.11167673
-3.496055	velho	-0.160395
-4.519169	encorajou	-0.11167673
-3.6985753	público	-0.310817
-3.7535124	nosso	-0.11167673
-4.0901747	avião	-0.11167673
-4.3469048	decola	-0.11167673
-3.273118	novamente	-0.5097052
-3.9786592	idoso	-0.12360565
-4.240604	boné	-0.14849393
-3.1701124	olhando	-0.45648873
-4.519169	crack	-0.11167673
-4.0901747	culpo	-0.3259967
-3.4084098	ninguém	-0.2373514
-4.0901747	pastor	-0.17207561
-2.912576	pode	-0.2582387
-4.240604	gostar	-0.14849393
-3.7535124	viajar	-0.17800686
-3.0391626	nunca	-0.15104726
-3.2929378	deve	-0.328762
-3.8900068	esquecer	-0.1116767
-3.1129158	suas	-0.1577555
-3.7535124	ovelhas	-0.19930404
-3.3137057	quanto	-0.22679888
-4.0901747	custa	-0.12512007
-2.9386854	esse	-0.21396588
-4.3469048	aparelho	-0.16814321
-3.2018085	já	-0.17231713
-3.9786592	ouviu	-0.13899289
-3.2929378	falar	-0.3883066
-4.0901747	ovo	-0.2738399
-4.240604	galinha	-0.12707502
-4.0901747	coloque	-0.14156356
-3.8164191	escada	-0.17800686
-4.0901747	cima	-0.2708912
-3.3827286	vestido	-0.18754724
-3.6985753	dançando	-0.21024443
-2.8571424	nos	-0.14285557
-4.519169	reunimos	-0.11167673
-4.519169	pareço	-0.11167673
-4.3469048	lembrar	-0.11167673
-4.240604	camiseta	-0.11167673
-4.240604	pátio	-0.1116767
-3.8164191	prédio	-0.2170997
-3.9786592	antigo	-0.12969531
-4.519169	interpretar	-0.11167673
-3.8900068	instruções	-0.25690067
-4.519169	extensas	-0.11167673
-4.519169	complexas	-0.11167673
-4.0901747	relacionadas	-0.13899289
-4.0901747	profissional	-0.55478096
-3.0997205	fazer	-0.4076585
-2.9664657	até	-0.39036205
-3.4357057	jovens	-0.20613964
-3.1550918	jogando	-0.331156
-4.240604	basquete	-0.17800686
-4.519169	defendendo	-0.11167673
-3.0506175	outro	-0.27589437
-3.3827286	tentando	-0.14999306
-3.9786592	cesta	-0.2989199
-3.6059785	nisso	-0.39859754
-3.0171213	ainda	-0.30084202
-4.519169	descobrindo	-0.11167673
-3.6059785	novas	-0.11167673
-4.3469048	ideias	-0.11167673
-3.566165	sabia	-0.20528974
-2.6175673	era	-0.26242313
-3.6985753	destino	-0.29701433
-4.3469048	junte	-0.16814321
-4.0901747	clube	-0.11167673
-4.519169	considerará	-0.11167673
-4.519169	viabilidade	-0.11167673
-3.6985753	vi	-0.15171042
-4.3469048	abordagem	-0.11167673
-3.8900068	questão	-0.13137104
-4.3469048	funcionar	-0.11167673
-4.240604	faço	-0.1116767
-4.0901747	amigável	-0.3259967
-4.519169	rainha	-0.11167673
-4.240604	provou	-0.1116767
-4.519169	seleção	-0.11167673
-4.240604	bolos	-0.14849393
-4.240604	gary	-0.1116767
-3.9786592	tirou	-0.1116767
-4.240604	moeda	-0.14849393
-3.7535124	bolsa	-0.28868002
-4.519169	retrocede	-0.11167673
-3.8164191	bola	-0.30088347
-3.8900068	futebol	-0.17321622
-4.519169	estádio	-0.11167673
-3.464833	horas	-0.33485115
-4.240604	londres	-0.14849393
-4.3469048	imensa	-0.11167673
-4.3469048	coleção	-0.16814321
-3.8164191	animais	-0.12512007
-3.4084098	começou	-0.6262788
-3.6985753	rápido	-0.3391625
-4.240604	resultado	-0.20574814
-3.5296967	tarde	-0.2277584
-3.464833	demais	-0.6270267
-4.240604	pescar	-0.14849393
-3.8900068	praia	-0.19342737
-3.8164191	cão	-0.19669637
-3.4084098	marrom	-0.2319772
-3.140573	branco	-0.33763167
-4.3469048	saltando	-0.11167673
-3.3355167	alto	-0.26835215
-3.8164191	pegando	-0.19423142
-3.8164191	explicar	-0.12707502
-4.240604	claramente	-0.1116767
-3.7535124	pedir	-0.12360565
-4.3469048	aumento	-0.16814321
-3.5296967	vez	-0.2656912
-4.3469048	nasci	-0.11167673
-3.1856713	dia	-0.26111934
-4.519169	deodoro	-0.11167673
-4.519169	fonseca	-0.11167673
-3.8900068	nasceu	-0.14303936
-3.4357057	senta	-0.6207623
-4.3469048	banquinho	-0.11167673
-3.6985753	deixar	-0.11167673
-4.519169	decidisse	-0.11167673
-4.519169	deixá	-0.11167673
-3.566165	los	-0.3818394
-4.519169	sofreriam	-0.11167673
-4.3469048	calção	-0.11167673
-4.240604	banho	-0.14303936
-3.7535124	pé	-0.21504083
-3.464833	contra	-0.27621275
-3.5296967	pedras	-0.29907867
-3.1856713	preto	-0.3048981
-4.519169	notarização	-0.11167673
-4.0901747	sentia	-0.11167673
-4.240604	fraca	-0.1116767
-4.3469048	comparação	-0.11167673
-3.6985753	filha	-0.1603356
-3.8900068	recém	-0.14849393
-4.519169	nascida	-0.11167673
-3.6498137	podemos	-0.11167673
-4.519169	farsa	-0.11167673
-4.519169	exclua	-0.11167673
-4.0901747	mensagens	-0.11167673
-4.0901747	li	-0.11167673
-3.9786592	correu	-0.11167673
-4.519169	loiras	-0.11167673
-3.6498137	conversando	-0.36039034
-3.8164191	estacionamento	-0.2790107
-4.519169	ferros	-0.11167673
-3.5296967	fogo	-0.26260853
-4.240604	anel	-0.13899289
-4.3469048	platina	-0.16814321
-4.240604	recebi	-0.1116767
-4.3469048	ligação	-0.13899289
-3.4084098	pequeno	-0.16094148
-3.9786592	colocando	-0.11167673
-4.0901747	itens	-0.2738399
-4.0901747	carrinho	-0.20869981
-4.519169	check	-0.11167673
-4.240604	out	-0.42984223
-3.6498137	hora	-0.23996592
-3.3584814	estar	-0.12926766
-3.6985753	vivo	-0.34405082
-3.9786592	emprego	-0.4199679
-3.6498137	usar	-0.1823376
-4.3469048	colar	-0.11167673
-4.0901747	licença	-0.13339049
-3.8900068	desse	-0.1116767
-3.8164191	projeto	-0.32887694
-4.519169	apache	-0.11167673
-3.6985753	camisa	-0.20728736
-3.3137057	branca	-0.34034732
-3.1701124	segurando	-0.39902505
-3.3827286	quem	-0.16284901
-3.2929378	dizer	-0.3231187
-4.3469048	gentilmente	-0.11167673
-3.5296967	queria	-0.13267286
-4.240604	fumar	-0.1116767
-4.519169	repente	-0.11167673
-4.3469048	falcões	-0.11167673
-3.3584814	fez	-0.24412307
-4.240604	mergulho	-0.12969531
-4.519169	intermitente	-0.11167673
-3.9786592	céu	-0.1715117
-4.519169	atacando	-0.11167673
-3.566165	livros	-0.16356568
-4.3469048	cheque	-0.11167673
-4.0901747	pagamento	-0.11167673
-3.3827286	vem	-0.13339049
-4.519169	haviam	-0.11167673
-3.273118	lhe	-0.11904223
-4.519169	ensinado	-0.11167673
-3.3827286	corre	-0.2619207
-2.996145	nas	-0.23874982
-4.519169	madeiras	-0.11167673
-3.6498137	olhar	-0.32887694
-4.0901747	sério	-0.3259967
-3.6498137	cara	-0.18968846
-4.240604	siga	-0.11167673
-3.6498137	essas	-0.29283807
-3.8164191	parecem	-0.11167673
-3.2541633	algum	-0.24958076
-3.8900068	parque	-0.17785347
-4.519169	recebendo	-0.11167673
-3.3137057	comida	-0.34526736
-4.240604	caminhada	-0.11167673
-3.8900068	janela	-0.27714342
-3.7535124	restaurante	-0.19841492
-3.6985753	talvez	-0.12785943
-4.240604	pássaros	-0.11167673
-3.8164191	deserto	-0.18968846
-4.3469048	pudessem	-0.11167673
-3.9786592	significado	-0.11167673
-3.5296967	amor	-0.1236057
-2.9211059	sem	-0.13577692
-3.9786592	propriedade	-0.11167673
-4.3469048	bombeiro	-0.11167673
-3.9786592	conseguiu	-0.11167673
-4.519169	resgatar	-0.11167673
-4.0901747	rapaz	-0.11167673
-3.7535124	haverá	-0.18523301
-4.3469048	debate	-0.16814321
-3.5296967	nome	-0.21447028
-3.1550918	dela	-0.38590765
-3.8164191	clara	-0.47795987
-4.519169	ouça	-0.11167673
-4.519169	luto	-0.11167673
-3.6498137	grupo	-0.2309167
-4.3469048	moradores	-0.11167673
-3.9786592	estrada	-0.23862267
-3.8164191	terra	-0.17511271
-4.3469048	planta	-0.1116767
-3.7535124	volta	-0.19731201
-3.7535124	sol	-0.19078912
-4.519169	moldar	-0.11167673
-4.519169	argila	-0.11167673
-4.0901747	suavemente	-0.11167673
-3.496055	forma	-0.21139607
-4.3469048	bloco	-0.11167673
-3.8900068	caminhando	-0.13899289
-3.6985753	longo	-0.13200112
-3.9786592	colina	-0.12828241
-4.3469048	narguilé	-0.11167673
-4.519169	extintos	-0.11167673
-4.519169	guardas	-0.11167673
-3.8164191	ficaram	-0.12512007
-4.3469048	atentos	-0.11167673
-4.0901747	batendo	-0.11167673
-3.9786592	rocha	-0.20574814
-4.519169	cobaia	-0.11167673
-3.8900068	fundo	-0.2790107
-3.8900068	houve	-0.17207561
-4.0901747	som	-0.13587156
-3.8164191	folhas	-0.14156356
-4.3469048	secas	-0.1116767
-4.519169	posa	-0.11167673
-4.0901747	jaqueta	-0.14213687
-4.519169	couro	-0.11167673
-3.8900068	além	-0.15332355
-4.3469048	tráfico	-0.11167673
-4.3469048	lento	-0.11167673
-4.3469048	peguei	-0.11167673
-3.9786592	número	-0.13137104
-3.8164191	encontrei	-0.12360565
-4.519169	alinhar	-0.11167673
-4.519169	ortogonal	-0.11167673
-3.273118	vermelha	-0.3310694
-3.8164191	detém	-0.4199679
-4.519169	borboleta	-0.11167673
-4.0901747	dedo	-0.11167673
-4.519169	enlameado	-0.11167673
-3.8164191	teclado	-0.22101875
-3.5296967	cheio	-0.797819
-4.0901747	poeira	-0.11167673
-4.519169	jerry	-0.11167673
-3.9786592	acreditar	-0.14849393
-4.519169	verifique	-0.11167673
-4.240604	eventos	-0.1116767
-3.1129158	minha	-0.24323039
-3.6059785	lista	-0.47795987
-3.8164191	espera	-0.20574814
-4.3469048	táxis	-0.11167673
-4.519169	passem	-0.11167673
-2.9860249	antes	-0.7214417
-4.240604	atravessar	-0.1116767
-4.519169	molhada	-0.11167673
-4.240604	esquina	-0.11167673
-4.519169	metropolitana	-0.11167673
-4.3469048	fita	-0.11167673
-4.240604	fina	-0.1116767
-4.519169	percorre	-0.11167673
-4.0901747	discurso	-0.12969531
-3.7535124	terminou	-0.20869981
-4.519169	ovação	-0.11167673
-4.3469048	socializando	-0.11167673
-3.9786592	calçada	-0.22449404
-4.240604	conveniente	-0.12969531
-3.566165	manter	-0.21579546
-4.240604	reservar	-0.26677254
-4.519169	sab	-0.11167673
-3.4357057	toca	-0.22280462
-4.240604	teatro	-0.1116767
-4.3469048	externo	-0.16814321
-3.8164191	barco	-0.19287893
-4.240604	navega	-0.1116767
-3.3137057	sob	-0.3422984
-3.6498137	vento	-0.1813653
-4.240604	agradável	-0.1116767
-3.2929378	primeiro	-0.26893297
-4.3469048	termo	-0.1116767
-3.6059785	passou	-0.18937007
-3.3355167	ano	-0.32694587
-3.4357057	comendo	-0.26867327
-4.519169	macarrão	-0.11167673
-4.519169	especular	-0.11167673
-3.3355167	quente	-0.3227232
-3.9786592	soprando	-0.24225251
-4.3469048	tubo	-0.12969531
-4.3469048	ruivo	-0.11167673
-4.519169	avalia	-0.11167673
-4.519169	escopo	-0.11167673
-3.8900068	use	-0.12360565
-3.566165	telefone	-0.25583255
-3.9786592	vá	-0.13137104
-4.240604	coma	-0.12360565
-3.7535124	jantar	-0.30533963
-4.0901747	rei	-0.12239794
-3.6059785	deixe	-0.18568674
-3.8900068	tentar	-0.1116767
-3.8164191	segunda	-0.12239794
-3.8164191	manhã	-0.2216134
-3.2018085	às	-0.239734
-3.6059785	gosto	-0.31928203
-3.8900068	lugares	-0.12239794
-4.3469048	bonitos	-0.16814321
-4.519169	arriscar	-0.11167673
-4.0901747	desculpe	-0.20574814
-4.519169	interromper	-0.11167673
-4.240604	palestra	-0.1116767
-3.8900068	senhor	-0.50208795
-4.3469048	edward	-0.11167673
-4.519169	ondulante	-0.11167673
-4.519169	sarjeta	-0.11167673
-4.0901747	cobre	-0.11167673
-4.519169	joice	-0.11167673
-4.519169	júlia	-0.11167673
-4.519169	estudam	-0.11167673
-4.519169	imitando	-0.11167673
-3.8164191	sucesso	-0.3301632
-4.0901747	design	-0.13899289
-3.0280023	faz	-0.3287925
-3.8900068	sentido	-0.18523301
-4.0901747	probabilidades	-0.3259967
-4.3469048	observação	-0.11167673
-4.519169	calculadas	-0.11167673
-4.0901747	produto	-0.13899289
-4.519169	pixels	-0.11167673
-4.0901747	inteligente	-0.55478096
-4.0901747	chuta	-0.11167673
-4.240604	ombro	-0.13339049
-4.3469048	artes	-0.16814321
-4.519169	marciais	-0.11167673
-4.0901747	jato	-0.12969531
-3.9786592	voando	-0.1116767
-3.9786592	baixo	-0.18523301
-4.519169	restrições	-0.11167673
-3.8900068	mente	-0.26441428
-3.1856713	havia	-0.19081624
-3.4084098	voltar	-0.36348486
-3.2360013	atrás	-0.33974954
-3.9786592	bicicleta	-0.19423857
-3.2929378	usando	-0.23389213
-3.8900068	botas	-0.1116767
-3.6985753	brancas	-0.41834375
-4.0901747	realizando	-0.3259967
-3.8900068	trabalhador	-0.17647474
-3.8164191	construção	-0.24984021
-4.3469048	civil	-0.11167673
-2.7024245	tem	-0.33871174
-4.240604	capacete	-0.1116767
-4.519169	vire	-0.11167673
-4.240604	direita	-0.13339049
-3.9786592	ponte	-0.12239794
-3.464833	tinha	-0.18989463
-4.3469048	quatorze	-0.11167673
-3.8164191	prática	-0.14303936
-3.4084098	vamos	-0.15252568
-4.0901747	montar	-0.3259967
-4.519169	bazar	-0.11167673
-4.519169	breve	-0.11167673
-4.240604	acabei	-0.42984223
-4.0901747	garantir	-0.13899289
-3.7535124	banco	-0.21923652
-4.0901747	recursos	-0.11167673
-4.3469048	atender	-0.11167673
-4.519169	necessidades	-0.11167673
-4.519169	regar	-0.11167673
-4.0901747	plantas	-0.13899289
-4.3469048	quintal	-0.12969531
-4.519169	cruzei	-0.11167673
-4.240604	estas	-0.11167673
-4.240604	areias	-0.14849393
-3.566165	vezes	-0.1449985
-4.519169	motoristas	-0.11167673
-4.0901747	camelo	-0.17800686
-3.6059785	falou	-0.26441428
-3.7535124	estamos	-0.1603356
-4.3469048	planejando	-0.11167673
-4.240604	visitar	-0.13899289
-4.3469048	grand	-0.16814321
-4.3469048	canyon	-0.14849393
-4.519169	ai	-0.11167673
-4.519169	desnecessário	-0.11167673
-3.6985753	pega	-0.2962512
-4.0901747	gotas	-0.11167673
-2.546611	enquanto	-0.34091288
-3.8900068	piscina	-0.23862267
-3.9786592	rasa	-0.15624729
-3.7535124	tenha	-0.13899289
-3.6985753	cuidado	-0.4750111
-4.240604	golpe	-0.13899289
-4.240604	novidade	-0.14849393
-3.7535124	garota	-0.16926251
-3.8164191	sorri	-0.22101875
-4.519169	interage	-0.11167673
-3.8164191	pessoal	-0.30919927
-3.8900068	médico	-0.12059256
-3.9786592	fizeram	-0.22101875
-4.240604	garoto	-0.11480265
-3.8900068	continuar	-0.12707502
-4.0901747	cavando	-0.11167673
-3.9786592	encontrou	-0.11167673
-2.9664657	nada	-0.35670477
-4.519169	brigavam	-0.11167673
-4.240604	constantemente	-0.1116767
-4.3469048	mudaram	-0.11167673
-4.519169	sanjin	-0.11167673
-4.3469048	neto	-0.11167673
-4.240604	brincavam	-0.14849393
-3.8164191	sala	-0.29198894
-4.519169	ganso	-0.1116767
-4.519169	trazido	-0.11167673
-3.7535124	mercado	-0.19841492
-4.519169	palmeiras	-0.1116767
-4.0901747	crescem	-0.11167673
-3.6498137	verdade	-0.27933386
-3.9786592	sei	-0.16321096
-4.3469048	adicione	-0.11167673
-3.2541633	música	-0.2446524
-2.6440525	à	-0.34309876
-4.519169	reprodução	-0.11167673
-4.519169	calma	-0.11167673
-3.464833	abaixo	-0.39102483
-4.519169	tornei	-0.11167673
-3.7535124	importante	-0.21024443
-4.519169	furadeira	-0.11167673
-3.8164191	fio	-0.12141228
-4.519169	jade	-0.11167673
-3.8900068	tornou	-0.36719123
-4.519169	defeituosa	-0.11167673
-4.3469048	levante	-0.11167673
-4.240604	aumentou	-0.1116767
-4.519169	intensidade	-0.11167673
-4.519169	trouxa	-0.11167673
-4.3469048	lagoa	-0.13899289
-3.6985753	caixa	-0.3391625
-4.3469048	fogos	-0.11167673
-4.240604	gente	-0.12969531
-4.519169	maluca	-0.11167673
-3.8900068	certeza	-0.18603612
-4.519169	exposto	-0.11167673
-4.519169	little	-0.11167673
-3.9786592	rock	-0.11167673
-4.519169	arkansas	-0.11167673
-2.9570067	vai	-0.19449972
-4.3469048	pegá	-0.16814321
-3.3827286	trabalho	-0.23340262
-4.240604	progresso	-0.13899289
-4.519169	vigésimo	-0.11167673
-4.3469048	terceiro	-0.11167673
-3.8164191	valor	-0.19423142
-4.0901747	limite	-0.13339049
-4.3469048	consultas	-0.11167673
-4.519169	superado	-0.11167673
-4.3469048	outubro	-0.11167673
-3.8164191	estará	-0.12512007
-3.9786592	pronto	-0.30919927
-4.519169	bolinhos	-0.11167673
-4.240604	ensopado	-0.1116767
-3.0997205	tão	-0.17889707
-3.4084098	bom	-0.19489203
-3.2929378	ver	-0.36399597
-4.519169	ingresso	-0.11167673
-3.4084098	ajuda	-0.22488645
-4.240604	garotinho	-0.11167673
-3.8900068	obter	-0.19423142
-4.519169	maktub	-0.11167673
-4.519169	lembrando	-0.11167673
-4.0901747	comerciante	-0.24225251
-3.9786592	cristal	-0.12239794
-4.519169	pterossauros	-0.11167673
-4.3469048	dinossauros	-0.11167673
-4.519169	intimamente	-0.11167673
-4.3469048	relacionados	-0.11167673
-3.9786592	significa	-0.14849393
-3.6985753	coração	-0.19670725
-4.0901747	alquimista	-0.16168964
-3.8900068	tente	-0.12059256
-4.519169	ensinassem	-0.11167673
-3.8900068	árabe	-0.18523301
-4.240604	pressão	-0.11167673
-3.8900068	imagem	-0.17207561
-4.3469048	vemos	-0.11167673
-4.3469048	torre	-0.13899289
-4.0901747	chorar	-0.35302114
-4.3469048	pára	-0.11167673
-4.519169	quedismo	-0.11167673
-4.3469048	perigoso	-0.16814321
-3.0744755	sempre	-0.13006261
-4.3469048	escrevendo	-0.11167673
-4.0901747	artigo	-0.12828241
-4.519169	costurou	-0.11167673
-4.3469048	rasgado	-0.11167673
-4.240604	perfeitamente	-0.14849393
-3.8164191	desde	-0.2962512
-4.519169	reparado	-0.11167673
-4.240604	mostrou	-0.1116767
-4.240604	cadeira	-0.12360565
-4.519169	pelúcia	-0.11167673
-4.240604	escorregou	-0.1116767
-4.3469048	van	-0.1116767
-4.519169	trechos	-0.11167673
-4.3469048	rochoso	-0.11167673
-3.4357057	outros	-0.19177543
-4.0901747	boca	-0.20683771
-3.8900068	aberta	-0.19423142
-4.0901747	moça	-0.1116767
-3.1701124	eram	-0.12112278
-4.519169	namorados	-0.11167673
-3.8164191	senhoras	-0.13137104
-4.0901747	bonitas	-0.11167673
-4.519169	apresentador	-0.11167673
-4.519169	talk	-0.11167673
-4.0901747	show	-0.19284798
-4.240604	retirou	-0.1116767
-4.240604	panela	-0.11167673
-3.6985753	colocou	-0.13137104
-4.519169	esfriar	-0.11167673
-4.240604	segure	-0.13899289
-4.519169	tua	-0.11167673
-3.7535124	mão	-0.20461658
-4.0901747	segurar	-0.13339049
-4.0901747	papai	-0.13899289
-3.566165	problemas	-0.22181146
-4.0901747	tal	-0.11167673
-4.519169	spaghetti	-0.11167673
-3.0280023	hoje	-0.44590032
-3.8164191	aquela	-0.11167673
-4.0901747	mel	-0.11167673
-4.3469048	mina	-0.16814321
-4.519169	carvão	-0.11167673
-4.3469048	normalmente	-0.11167673
-4.3469048	assisto	-0.1116767
-4.519169	nascar	-0.11167673
-3.6498137	nossos	-0.11167673
-3.9786592	maiores	-0.11167673
-4.0901747	clientes	-0.11167673
-4.519169	afetados	-0.11167673
-3.7535124	chapéu	-0.25319204
-4.3469048	sabor	-0.1116767
-4.240604	dançarina	-0.1116767
-4.519169	folk	-0.11167673
-4.0901747	girando	-0.24225251
-3.8900068	saia	-0.13587156
-3.5296967	cor	-0.27924764
-4.3469048	coral	-0.11167673
-3.5296967	crianças	-0.22581208
-4.0901747	raramente	-0.11167673
-4.519169	desfrutam	-0.11167673
-3.9786592	riqueza	-0.1116767
-4.519169	abundante	-0.11167673
-3.8900068	seguro	-0.24092796
-4.519169	tranquilo	-0.11167673
-3.9786592	américa	-0.24092796
-4.240604	norte	-0.13339049
-4.240604	grito	-0.12969531
-4.3469048	barriga	-0.14849393
-4.3469048	proposta	-0.11167673
-4.519169	fornece	-0.11167673
-3.7535124	resultados	-0.13587156
-3.7535124	última	-0.18523301
-4.240604	geração	-0.11167673
-4.3469048	custo	-0.11167673
-4.519169	computacional	-0.11167673
-4.240604	terceira	-0.2738399
-4.3469048	tablet	-0.1116767
-4.3469048	reiniciou	-0.11167673
-4.240604	bata	-0.1116767
-4.0901747	parado	-0.11167673
-4.519169	envolvem	-0.11167673
-4.240604	palhaço	-0.1116767
-3.8164191	pernas	-0.12360565
-4.519169	cruzadas	-0.11167673
-4.519169	dobrável	-0.1116767
-4.240604	carnaval	-0.3259967
-4.3469048	rural	-0.11167673
-3.9786592	único	-0.1199002
-3.7535124	cabelo	-0.11576899
-4.240604	lança	-0.14849393
-3.6985753	sombra	-0.16711937
-3.8900068	perguntar	-0.24092796
-3.496055	ficar	-0.11728643
-4.240604	sobrecarregado	-0.14849393
-4.519169	adivinha	-0.11167673
-4.3469048	primeiras	-0.1116767
-4.519169	pontuações	-0.11167673
-4.519169	silenciosa	-0.11167673
-3.7535124	nove	-0.12141228
-4.3469048	vidas	-0.14849393
-4.240604	motociclista	-0.11167673
-3.8164191	assistem	-0.47664708
-4.519169	quadrada	-0.11167673
-3.8900068	almoço	-0.30919927
-4.0901747	programação	-0.12239794
-3.566165	filme	-0.19118111
-3.9786592	bairro	-0.50208795
-3.1265242	onde	-0.23127048
-3.6498137	veio	-0.17800686
-3.2360013	então	-0.21034484
-3.2929378	pulando	-0.50573325
-3.8164191	multidão	-0.24453813
-4.519169	gritava	-0.11167673
-3.1265242	dele	-0.6032452
-3.9786592	lembrou	-0.12969531
-4.0901747	lã	-0.11167673
-3.8900068	tapete	-0.13587156
-4.519169	durma	-0.11167673
-3.8900068	senhora	-0.12707502
-3.7535124	curto	-0.13899289
-4.0901747	executa	-0.24225251
-4.519169	bailado	-0.11167673
-3.9786592	corredor	-0.17800686
-4.3469048	descalço	-0.11167673
-3.1550918	fazendo	-0.34849745
-4.240604	truque	-0.11167673
-4.519169	entardecer	-0.11167673
-4.3469048	dormido	-0.11167673
-4.3469048	diretor	-0.1116767
-4.240604	queda	-0.1116767
-4.240604	atriz	-0.14849393
-3.6985753	sorrindo	-0.27358922
-4.3469048	balanço	-0.11167673
-3.9786592	corda	-0.18937007
-4.519169	oitavo	-0.11167673
-4.240604	sino	-0.1116767
-4.3469048	almas	-0.11167673
-3.6985753	viva	-0.50549394
-4.0901747	tia	-0.1116767
-4.0901747	abriu	-0.2738399
-3.566165	loja	-0.29092982
-3.7535124	várias	-0.16291568
-4.3469048	quadra	-0.14849393
-4.240604	vergonha	-0.1116767
-4.0901747	cercada	-0.3259967
-4.3469048	dividido	-0.11167673
-4.0901747	partes	-0.3259967
-3.8900068	vestidas	-0.12360565
-3.6498137	roupas	-0.24723661
-4.519169	indianas	-0.11167673
-4.0901747	subiu	-0.11167673
-4.0901747	duna	-0.11167673
-3.7535124	lentamente	-0.20574814
-4.519169	esconder	-0.11167673
-4.3469048	identidade	-0.1116767
-3.8164191	cortando	-0.2544573
-3.8164191	carne	-0.12707502
-4.519169	april	-0.11167673
-4.519169	abraçou	-0.11167673
-4.0901747	cordeiro	-0.3259967
-4.519169	tende	-0.11167673
-4.3469048	seção	-0.11167673
-4.519169	zhongzheng	-0.11167673
-4.519169	distrito	-0.11167673
-4.519169	danshui	-0.11167673
-3.3827286	nova	-0.19638228
-3.9786592	taipei	-0.22101875
-3.6985753	dormir	-0.3759207
-4.519169	filhinho	-0.11167673
-4.0901747	posando	-0.13899289
-4.0901747	foto	-0.12828241
-4.519169	uniformizados	-0.11167673
-4.3469048	motorizado	-0.11167673
-4.519169	ajustei	-0.11167673
-4.519169	alarme	-0.11167673
-3.6059785	seis	-0.203619
-4.0901747	puxando	-0.3259967
-4.240604	trator	-0.11167673
-3.6985753	gentil	-0.2738399
-4.0901747	estranhos	-0.13899289
-3.8164191	saudável	-0.5690348
-4.3469048	regras	-0.11167673
-4.240604	quebrando	-0.14849393
-4.240604	universo	-0.11167673
-4.519169	marvel	-0.11167673
-4.519169	disparou	-0.11167673
-3.6059785	imediatamente	-0.4372226
-4.519169	velhice	-0.11167673
-4.3469048	rega	-0.11167673
-4.240604	competição	-0.1116767
-3.8900068	espectadores	-0.35007238
-4.3469048	máquinas	-0.11167673
-4.519169	costura	-0.11167673
-4.519169	modernas	-0.11167673
-3.464833	podem	-0.24959008
-4.519169	reduzir	-0.11167673
-4.519169	desabrigado	-0.11167673
-4.3469048	veste	-0.11167673
-4.519169	revestimento	-0.11167673
-4.240604	grosso	-0.1116767
-3.2929378	olha	-0.34409016
-3.8900068	aconteceu	-0.22101875
-4.240604	asas	-0.2738399
-3.8164191	razão	-0.20574814
-4.240604	cheguei	-0.1116767
-3.6985753	quarto	-0.15930513
-3.7535124	chorou	-0.12512007
-3.3355167	toda	-0.30015194
-3.140573	porque	-0.23608962
-4.3469048	versão	-0.1116767
-4.519169	preview	-0.11167673
-3.8900068	conhecimento	-0.3420087
-4.0901747	usado	-0.24225251
-3.7535124	fui	-0.12969527
-4.519169	pontual	-0.11167673
-3.0065064	perto	-0.82199496
-4.240604	solução	-0.11167673
-4.519169	singularidade	-0.11167673
-4.519169	escassez	-0.11167673
-4.0901747	alquimia	-0.15624729
-3.8900068	existe	-0.12969531
-4.3469048	estudo	-0.11167673
-4.3469048	literatura	-0.1116767
-3.9786592	brasil	-0.20574814
-3.3584814	comigo	-0.486263
-4.240604	espere	-0.14303936
-3.6985753	passar	-0.13587156
-3.9786592	cães	-0.15171042
-4.0901747	passam	-0.11167673
-3.9786592	uns	-0.13339049
-3.3355167	aos	-0.18937007
-3.9786592	suco	-0.651691
-4.3469048	limões	-0.11167673
-4.3469048	soco	-0.11167673
-3.8164191	montando	-0.2694243
-4.240604	camelos	-0.11167673
-4.3469048	cidadãos	-0.11167673
-4.0901747	aqueles	-0.13899289
-4.519169	visitam	-0.11167673
-3.8164191	nossa	-0.11167673
-3.9786592	estudando	-0.11167673
-2.7822144	ou	-0.12900585
-3.4357057	joga	-0.29940647
-4.3469048	osso	-0.11167673
-4.240604	argentina	-0.1116767
-4.519169	versus	-0.11167673
-3.5296967	final	-0.24984021
-4.3469048	mundial	-0.11167673
-4.240604	fique	-0.11167673
-4.3469048	ligado	-0.11167673
-4.3469048	esqueci	-0.1116767
-4.3469048	agradecer	-0.1116767
-4.3469048	aquelas	-0.11167673
-4.240604	rosas	-0.1116767
-3.566165	viu	-0.13498381
-4.519169	encha	-0.11167673
-4.3469048	tempestade	-0.11167673
-3.566165	forte	-0.20507427
-4.519169	apaga	-0.11167673
-4.519169	kyle	-0.11167673
-4.519169	explicações	-0.11167673
-3.8164191	boas	-0.12239794
-4.3469048	persegue	-0.11167673
-4.519169	projetou	-0.11167673
-4.519169	fuga	-0.11167673
-3.3137057	carregando	-0.3368989
-4.240604	balde	-0.14849393
-3.5296967	feito	-0.22488645
-4.3469048	umas	-0.11167673
-3.6059785	outras	-0.2479177
-4.519169	dinamitaram	-0.11167673
-3.9786592	inteira	-0.2738399
-3.6498137	mal	-0.16711937
-4.519169	sobreviveu	-0.11167673
-4.0901747	salário	-0.11167673
-3.8164191	pagar	-0.13339049
-4.519169	afastando	-0.11167673
-3.8900068	observa	-0.24225251
-4.519169	projetado	-0.11167673
-4.0901747	pedestres	-0.12707502
-4.240604	ciclista	-0.1116767
-4.519169	tranquilamente	-0.11167673
-4.519169	moderno	-0.11167673
-4.0901747	bela	-0.13339049
-4.519169	notaram	-0.11167673
-4.0901747	situação	-0.11167673
-4.519169	refletiu	-0.11167673
-4.519169	aura	-0.11167673
-4.519169	sobrenatural	-0.11167673
-3.5296967	muita	-0.1199002
-4.240604	acabar	-0.1116767
-4.240604	necessidade	-0.13339049
-4.519169	aprisioná	-0.11167673
-4.519169	árabes	-0.11167673
-3.6059785	simplesmente	-0.22715862
-4.519169	confiscaram	-0.11167673
-3.8164191	cavalos	-0.12360565
-4.0901747	escolher	-0.3259967
-3.6498137	metade	-0.1715117
-3.8900068	pão	-0.11167673
-4.3469048	surfista	-0.11167673
-3.6498137	passando	-0.5748699
-3.9786592	onda	-0.2399889
-3.9786592	capaz	-0.35302114
-4.3469048	cruzar	-0.11167673
-3.7535124	estrelas	-0.12239794
-3.9786592	brilhantes	-0.1116767
-4.3469048	olhe	-0.13899289
-4.0901747	ombros	-0.3259967
-3.6498137	chuva	-0.20172769
-4.519169	largue	-0.11167673
-4.240604	funcionários	-0.1116767
-4.240604	operam	-0.1116767
-4.3469048	caixas	-0.11167673
-4.519169	registradoras	-0.11167673
-4.519169	compram	-0.11167673
-4.3469048	refrigerante	-0.11167673
-4.0901747	pular	-0.11167673
-4.519169	maldita	-0.11167673
-4.3469048	introdução	-0.11167673
-3.9786592	meninas	-0.17108919
-3.7535124	vendendo	-0.13587156
-3.7535124	brinquedos	-0.25690067
-4.3469048	produção	-0.14849393
-4.519169	executivo	-0.11167673
-4.3469048	terno	-0.11167673
-3.5296967	esperando	-0.25998455
-4.3469048	tentei	-0.11167673
-3.496055	tanto	-0.2608225
-3.5296967	longe	-0.24153882
-4.519169	palhaçadas	-0.11167673
-3.9786592	sujeira	-0.30919927
-3.8900068	grama	-0.24648102
-3.566165	nenhum	-0.12141228
-3.6985753	momento	-0.19841492
-4.240604	la	-0.12969531
-3.9786592	hospital	-0.12969531
-4.519169	reabilitação	-0.11167673
-4.240604	salto	-0.19796216
-4.3469048	lembre	-0.14849393
-4.240604	acordar	-0.13899289
-3.3827286	amanhã	-0.3891045
-3.7535124	oito	-0.11167673
-3.0171213	também	-0.21446528
-4.0901747	profundamente	-0.11167673
-4.3469048	tocado	-0.11167673
-4.519169	atrevo	-0.11167673
-4.0901747	assunto	-0.11167673
-4.3469048	merece	-0.11167673
-4.3469048	considerado	-0.11167673
-4.3469048	fogueira	-0.11167673
-4.519169	roger	-0.11167673
-4.519169	backup	-0.11167673
-4.3469048	fingindo	-0.11167673
-4.240604	fatima	-0.1116767
-4.519169	desviando	-0.11167673
-4.519169	dispense	-0.11167673
-3.9786592	colete	-0.1116767
-4.519169	multado	-0.11167673
-4.519169	injustamente	-0.11167673
-4.3469048	acenando	-0.11167673
-4.3469048	esqui	-0.13339049
-4.3469048	aquático	-0.1116767
-3.8164191	lago	-0.25690067
-3.9786592	seriam	-0.1116767
-3.7535124	futuro	-0.2827422
-4.519169	vidente	-0.11167673
-4.0901747	dito	-0.13339049
-4.519169	formou	-0.11167673
-4.519169	interiores	-0.11167673
-4.3469048	implica	-0.11167673
-3.7535124	jogar	-0.13587156
-4.519169	badminton	-0.11167673
-4.3469048	devemos	-0.12707502
-3.3137057	ir	-0.27657202
-4.519169	abrace	-0.11167673
-3.8164191	nesta	-0.12707502
-3.7535124	tenda	-0.19930404
-4.0901747	quieto	-0.13339049
-4.240604	aprenda	-0.13339049
-4.3469048	julgar	-0.14849393
-3.496055	acima	-0.36733657
-4.240604	cachoeira	-0.42984223
-4.240604	saiba	-0.13899289
-3.8900068	plataforma	-0.20869981
-4.519169	reteve	-0.11167673
-4.240604	rara	-0.1116767
-4.240604	visita	-0.1116767
-4.240604	amizade	-0.13339049
-4.0901747	aumenta	-0.11167673
-4.519169	rothschild	-0.11167673
-4.519169	batata	-0.11167673
-4.3469048	frita	-0.1116767
-4.519169	pauzinhos	-0.11167673
-4.240604	leitura	-0.14849393
-4.519169	dezenas	-0.11167673
-3.566165	provavelmente	-0.12059256
-3.6059785	guarda	-0.20147489
-4.3469048	reduzida	-0.11167673
-4.240604	devido	-0.42984223
-3.8164191	falta	-0.13587156
-4.519169	financiamento	-0.11167673
-4.3469048	quais	-0.14849393
-4.0901747	animados	-0.20869981
-4.519169	reproduzidos	-0.11167673
-4.0901747	evitar	-0.11167673
-4.519169	perdas	-0.11167673
-4.519169	desamparados	-0.11167673
-4.0901747	correram	-0.13339049
-4.240604	encontre	-0.19284798
-4.3469048	direito	-0.1116767
-3.8900068	educação	-0.30919927
-4.519169	envio	-0.11167673
-3.9786592	falhou	-0.651691
-3.7535124	sido	-0.11795123
-3.566165	ontem	-0.48986405
-4.519169	caderno	-0.11167673
-3.6985753	vinte	-0.25979477
-4.519169	matérias	-0.11167673
-4.519169	manifesto	-0.11167673
-4.0901747	barra	-0.13899289
-4.240604	chocolate	-0.13899289
-4.3469048	nublado	-0.1116767
-3.6059785	frio	-0.43335965
-4.3469048	york	-0.11167673
-4.519169	custar	-0.1116767
-3.8164191	trezentos	-0.30919927
-3.9786592	reais	-0.4229067
-3.8900068	jardim	-0.12360565
-3.6985753	caminha	-0.25690067
-3.8164191	direção	-0.21579546
-4.240604	treze	-0.1116767
-4.519169	totens	-0.11167673
-4.3469048	espalhados	-0.11167673
-4.0901747	ilha	-0.11167673
-4.0901747	idosa	-0.12512007
-3.8164191	carrega	-0.22101875
-3.7535124	frutas	-0.26997072
-4.3469048	redonda	-0.11167673
-4.3469048	animado	-0.11167673
-4.240604	colocá	-0.42984223
-4.519169	estiverem	-0.11167673
-4.519169	acertadas	-0.11167673
-4.0901747	quarta	-0.2738399
-3.8164191	feira	-0.27714342
-4.0901747	fraco	-0.13899289
-4.519169	agrada	-0.11167673
-4.519169	divertindo	-0.11167673
-3.9786592	adultos	-0.11167673
-3.6985753	caminham	-0.3420087
-4.3469048	fazenda	-0.11167673
-4.3469048	ministério	-0.11167673
-3.8164191	luzes	-0.25690067
-4.3469048	janelas	-0.11167673
-4.519169	superiores	-0.11167673
-4.0901747	casas	-0.11167673
-3.8164191	cama	-0.25055754
-4.519169	maquiagem	-0.11167673
-4.519169	esquete	-0.11167673
-4.0901747	musical	-0.11167673
-3.9786592	palco	-0.23935482
-3.7535124	alegria	-0.17800686
-4.240604	preparam	-0.1116767
-4.3469048	suja	-0.16814321
-4.240604	acostumado	-0.14849393
-4.519169	reconhecer	-0.11167673
-3.8900068	presságios	-0.16725574
-3.6059785	amigo	-0.19014575
-4.519169	empurram	-0.11167673
-4.519169	concessão	-0.11167673
-4.3469048	cronograma	-0.1116767
-4.519169	yasmin	-0.11167673
-4.3469048	sophia	-0.11167673
-4.519169	elegantes	-0.11167673
-3.8900068	melhores	-0.11167673
-4.519169	ficaria	-0.11167673
-3.7535124	surpresa	-0.30265814
-4.519169	funcionário	-0.11167673
-3.2541633	fica	-0.29822847
-4.3469048	monitores	-0.11167673
-3.6498137	computador	-0.18733385
-4.3469048	best	-0.11167673
-4.519169	buy	-0.11167673
-4.3469048	vendido	-0.11167673
-4.3469048	doze	-0.11167673
-3.4357057	mil	-0.14883487
-4.0901747	sessenta	-0.1116767
-4.3469048	euros	-0.11167673
-4.240604	eletricidade	-0.14849393
-3.9786592	pequenas	-0.11167673
-4.3469048	falhas	-0.11167673
-4.519169	permitiram	-0.11167673
-3.496055	entrar	-0.4465178
-3.496055	maior	-0.21566477
-3.6498137	deus	-0.21579546
-3.5296967	dá	-0.12828241
-4.519169	alfarrobas	-0.11167673
-4.519169	àqueles	-0.11167673
-4.519169	enferrujá	-0.11167673
-4.240604	entrevista	-0.13899289
-3.8900068	super	-0.11167673
-4.519169	atravesse	-0.11167673
-4.519169	pontes	-0.11167673
-3.8164191	chegar	-0.14849393
-3.9786592	elas	-0.13339049
-3.6985753	fim	-0.30919927
-4.240604	efeito	-0.11167673
-3.8900068	legal	-0.24225251
-4.519169	deslumbrante	-0.11167673
-4.0901747	ficam	-0.11167673
-4.0901747	vendo	-0.13339049
-4.0901747	motocicletas	-0.13899289
-4.3469048	dirigir	-0.11167673
-4.3469048	século	-0.11167673
-3.8900068	anterior	-0.50208795
-3.3137057	alguém	-0.18638684
-3.6985753	poder	-0.16711937
-3.8900068	site	-0.13137104
-4.3469048	utiliza	-0.11167673
-4.519169	cookies	-0.11167673
-4.519169	alvoroço	-0.11167673
-3.8900068	digo	-0.2399889
-4.519169	garantido	-0.11167673
-3.464833	dar	-0.26665136
-4.519169	juros	-0.11167673
-4.3469048	comprei	-0.11167673
-4.519169	cocada	-0.11167673
-4.3469048	deliciosa	-0.16814321
-4.519169	adianta	-0.11167673
-3.8900068	fechar	-0.22101875
-3.6985753	porta	-0.20295642
-4.519169	estábulo	-0.11167673
-3.6059785	cavalo	-0.18067512
-4.519169	aparafusado	-0.11167673
-3.9786592	sejam	-0.1116767
-4.519169	enfermeira	-0.1116767
-4.0901747	andou	-0.11167673
-4.519169	enfermaria	-0.11167673
-3.8900068	nenhuma	-0.12059256
-4.3469048	dita	-0.11167673
-4.519169	wakeboard	-0.11167673
-4.519169	tremia	-0.11167673
-4.3469048	emoção	-0.11167673
-3.8900068	pediu	-0.14303936
-4.519169	esperasse	-0.11167673
-3.8900068	espada	-0.23935482
-4.240604	sorriso	-0.1116767
-3.8164191	coloca	-0.12707502
-4.519169	colchão	-0.11167673
-4.519169	collie	-0.11167673
-4.3469048	escava	-0.16814321
-4.519169	baleia	-0.11167673
-4.240604	animal	-0.11167673
-4.0901747	enorme	-0.22101875
-3.9786592	turistas	-0.11167673
-3.9786592	leva	-0.11167673
-4.519169	vintage	-0.11167673
-4.3469048	cestas	-0.11167673
-4.519169	retire	-0.11167673
-4.519169	sonda	-0.11167673
-3.5296967	saber	-0.37243468
-4.0901747	exatamente	-0.13339049
-3.9786592	erro	-0.3194163
-4.519169	localizado	-0.11167673
-4.519169	abuso	-0.11167673
-4.519169	autoridade	-0.11167673
-4.519169	partido	-0.11167673
-3.8164191	trabalha	-0.20865943
-4.3469048	andaime	-0.14849393
-3.6059785	local	-0.32086676
-3.9786592	pesada	-0.2738399
-3.8900068	terá	-0.12969531
-4.3469048	colega	-0.11167673
-3.9786592	causa	-0.11167673
-4.519169	caos	-0.11167673
-3.8164191	amarela	-0.19741812
-4.519169	cobalto	-0.11167673
-4.3469048	abandonada	-0.11167673
-4.3469048	décadas	-0.16814321
-4.519169	linus	-0.11167673
-4.519169	torvalds	-0.11167673
-3.9786592	criou	-0.13339049
-4.519169	kernel	-0.11167673
-4.240604	linux	-0.13899289
-3.3584814	dez	-0.3099104
-4.0901747	grátis	-0.3259967
-4.240604	mágica	-0.14849393
-4.519169	gostamos	-0.11167673
-4.3469048	salve	-0.1116767
-4.0901747	peça	-0.11167673
-4.519169	brava	-0.11167673
-3.9786592	pare	-0.3301632
-3.496055	pensar	-0.2544573
-3.9786592	sabem	-0.11167673
-4.0901747	levou	-0.11167673
-4.240604	minas	-0.1116767
-4.519169	administradas	-0.11167673
-3.8900068	conselho	-0.1116767
-4.519169	creme	-0.11167673
-4.519169	hidratante	-0.11167673
-4.519169	fantástico	-0.11167673
-4.3469048	tranquila	-0.11167673
-4.240604	lojas	-0.14849393
-4.519169	exclusivas	-0.11167673
-4.519169	arquitetura	-0.11167673
-4.0901747	tiro	-0.12969531
-4.519169	postar	-0.11167673
-4.0901747	sorridente	-0.1116767
-3.9786592	violino	-0.12360565
-4.240604	redor	-0.19423142
-4.519169	examinam	-0.11167673
-3.9786592	biblioteca	-0.13339049
-3.7535124	triste	-0.17800686
-4.519169	baixando	-0.11167673
-3.9786592	força	-0.17800686
-4.240604	uniforme	-0.11167673
-4.519169	pedágio	-0.11167673
-4.3469048	quinze	-0.11167673
-4.3469048	prédios	-0.11167673
-4.519169	restauradas	-0.11167673
-3.9786592	último	-0.11167673
-4.3469048	lote	-0.11167673
-4.3469048	assisti	-0.13339049
-4.519169	jurassic	-0.11167673
-4.3469048	world	-0.16814321
-4.3469048	encolheu	-0.1116767
-3.9786592	costas	-0.30919927
-4.240604	caminhou	-0.1116767
-3.1856713	através	-0.7381771
-4.519169	mantenha	-0.1116767
-4.240604	organização	-0.1116767
-4.0901747	programa	-0.13339049
-4.519169	transações	-0.11167673
-4.3469048	privadas	-0.11167673
-3.566165	comprar	-0.19155093
-4.0901747	produtos	-0.11167673
-3.6059785	alta	-0.257296
-3.9786592	qualidade	-0.12969531
-3.8900068	entrou	-0.3849324
-3.8900068	pista	-0.3194163
-4.519169	boate	-0.11167673
-4.519169	display	-0.11167673
-4.519169	tenso	-0.11167673
-4.240604	chateado	-0.1116767
-4.519169	citação	-0.11167673
-4.3469048	acaso	-0.11167673
-4.3469048	favorece	-0.11167673
-4.519169	preparada	-0.11167673
-4.519169	ciúme	-0.11167673
-4.3469048	monstro	-0.1116767
-3.8900068	verdes	-0.35302114
-4.519169	bacias	-0.11167673
-3.6059785	madeira	-0.28038174
-4.3469048	exposição	-0.16814321
-4.3469048	paredes	-0.13339049
-4.519169	forradas	-0.11167673
-3.9786592	vestidos	-0.11167673
-3.9786592	coloridos	-0.2738399
-4.519169	divulgar	-0.11167673
-4.519169	apague	-0.11167673
-4.0901747	nossas	-0.11167673
-4.519169	importações	-0.11167673
-4.240604	porto	-0.1116767
-4.519169	roterdã	-0.11167673
-3.8164191	fácil	-0.16356568
-4.0901747	fiz	-0.20574814
-3.4084098	pensou	-0.2989199
-4.240604	acaba	-0.1116767
-4.3469048	beisebol	-0.118794695
-4.0901747	comecei	-0.3259967
-3.464833	sozinho	-0.3391625
-4.240604	oficina	-0.42984223
-4.519169	ponderando	-0.11167673
-4.519169	opções	-0.11167673
-4.519169	morse	-0.11167673
-4.3469048	entrei	-0.16814321
-4.0901747	brigando	-0.11167673
-4.0901747	advogado	-0.13339049
-3.7535124	olhou	-0.47795987
-4.240604	sorriu	-0.11167673
-4.3469048	verificação	-0.11167673
-4.519169	cantem	-0.11167673
-4.3469048	cantar	-0.1116767
-3.9786592	beber	-0.12969531
-4.519169	robe	-0.11167673
-3.8164191	devo	-0.118794695
-4.3469048	json	-0.11167673
-4.519169	yaml	-0.11167673
-3.8164191	caso	-0.12239794
-4.3469048	painéis	-0.16814321
-4.519169	racer	-0.11167673
-4.3469048	sustenta	-0.16814321
-4.240604	motocicleta	-0.11167673
-3.8164191	fosse	-0.12239794
-4.519169	alimentado	-0.11167673
-4.519169	choraria	-0.11167673
-4.3469048	tabuleiro	-0.11167673
-4.240604	corredores	-0.11167673
-4.3469048	aproximação	-0.16814321
-4.3469048	usamos	-0.11167673
-4.519169	distribuição	-0.11167673
-4.519169	gaussiana	-0.11167673
-4.519169	multivariada	-0.11167673
-4.519169	bolsos	-0.11167673
-4.519169	combinei	-0.11167673
-3.8900068	artista	-0.12059256
-3.496055	meus	-0.13137104
-4.519169	duetos	-0.11167673
-4.240604	esqueça	-0.11167673
-3.9786592	enviar	-0.11167673
-4.0901747	tarefa	-0.1116767
-4.519169	escorregar	-0.11167673
-4.519169	exigia	-0.11167673
-4.519169	ficassem	-0.11167673
-4.3469048	amavam	-0.11167673
-3.7535124	saindo	-0.2738399
-4.519169	cheesecake	-0.11167673
-4.3469048	estruturo	-0.16814321
-4.519169	gramática	-0.11167673
-4.519169	ditar	-0.11167673
-4.3469048	continuamente	-0.11167673
-3.1265242	vermelho	-0.35723135
-3.4084098	fala	-0.15748447
-4.240604	fomos	-0.1116767
-4.519169	bombardeados	-0.11167673
-4.519169	propagandas	-0.11167673
-4.519169	preste	-0.11167673
-3.8164191	atenção	-0.20103855
-3.9786592	especial	-0.4229067
-4.0901747	busca	-0.11167673
-4.3469048	google	-0.11167673
-4.240604	gatos	-0.11167673
-4.240604	aluguel	-0.1116767
-4.519169	headphone	-0.11167673
-4.240604	quebrado	-0.42984223
-4.519169	evidenciando	-0.11167673
-4.3469048	idéia	-0.11167673
-3.8164191	jogadores	-0.35007238
-4.3469048	vara	-0.11167673
-4.519169	aprendesse	-0.11167673
-4.3469048	inteligentes	-0.16814321
-4.3469048	volte	-0.12969531
-3.566165	cedo	-0.19287893
-3.8900068	shorts	-0.16711937
-4.0901747	fonte	-0.26677254
-4.240604	doloroso	-0.42984223
-3.5296967	ler	-0.18755306
-4.519169	documentação	-0.11167673
-4.3469048	keras	-0.11167673
-4.519169	conduta	-0.11167673
-3.9786592	relação	-0.12969531
-3.464833	cada	-0.27418694
-4.0901747	sentença	-0.11167673
-3.6498137	deveria	-0.2852298
-3.3137057	nem	-0.16326222
-4.519169	cobri	-0.11167673
-4.519169	privar	-0.11167673
-4.240604	esfregando	-0.1116767
-4.519169	darei	-0.11167673
-3.9786592	matar	-0.11167673
-4.519169	desenterrar	-0.11167673
-4.0901747	penso	-0.11167673
-3.273118	assim	-0.44013172
-4.240604	japão	-0.14849393
-4.519169	greg	-0.11167673
-4.240604	vaca	-0.11167673
-3.9786592	aquele	-0.12141228
-4.519169	androide	-0.11167673
-4.519169	insano	-0.11167673
-4.240604	continua	-0.1116767
-4.3469048	ignorar	-0.11167673
-3.8900068	atravessa	-0.26677254
-3.8164191	rio	-0.26716533
-4.240604	quantas	-0.11167673
-4.3469048	ambas	-0.16814321
-4.519169	classes	-0.11167673
-3.6985753	cerveja	-0.21302925
-4.519169	fabricada	-0.11167673
-4.519169	alemanha	-0.1116767
-4.519169	especificamente	-0.11167673
-4.519169	baviera	-0.11167673
-4.240604	recomendo	-0.1116767
-4.519169	mouseless	-0.11167673
-4.519169	browsing	-0.11167673
-4.240604	firefox	-0.13899289
-4.519169	vimium	-0.11167673
-4.519169	chrome	-0.11167673
-3.6498137	viver	-0.18937007
-3.7535124	sonho	-0.16356568
-3.9786592	objeto	-0.12360565
-4.0901747	vende	-0.11167673
-3.8164191	compra	-0.12512007
-4.240604	pastores	-0.11167673
-4.3469048	casados	-0.11167673
-4.519169	conhecera	-0.11167673
-4.519169	identificação	-0.11167673
-4.3469048	organizações	-0.11167673
-4.3469048	instituições	-0.11167673
-4.519169	fornecem	-0.11167673
-3.6985753	informações	-0.17800686
-4.240604	tio	-0.11167673
-4.3469048	jack	-0.11167673
-3.8164191	sentir	-0.1116767
-3.8900068	portão	-0.36719123
-4.3469048	aumentar	-0.11167673
-4.240604	vontade	-0.1116767
-4.3469048	aplicar	-0.11167673
-3.464833	salta	-0.237965
-4.240604	tronco	-0.42984223
-4.519169	conhecimentos	-0.11167673
-4.519169	desenvolvidos	-0.11167673
-3.8900068	projetos	-0.14849393
-4.3469048	beneficiário	-0.11167673
-4.519169	despertador	-0.11167673
-4.3469048	botão	-0.11167673
-4.3469048	soneca	-0.14849393
-3.3355167	poderia	-0.2915042
-4.240604	criminosos	-0.1116767
-4.519169	choram	-0.11167673
-3.5296967	amigos	-0.20324194
-4.240604	discutindo	-0.1116767
-4.240604	governador	-0.14849393
-4.0901747	começando	-0.4229067
-4.3469048	dei	-0.1116767
-4.240604	casamento	-0.2738399
-4.240604	procure	-0.15961301
-3.6498137	presidente	-0.17535463
-3.9786592	estados	-0.651691
-4.0901747	unidos	-0.20574814
-3.7535124	tirar	-0.12360565
-4.519169	gota	-0.1116767
-4.240604	amiga	-0.1116767
-3.9786592	ia	-0.11167673
-4.0901747	casar	-0.2738399
-4.3469048	dama	-0.16814321
-3.9786592	honra	-0.20574814
-4.3469048	milhares	-0.16814321
-3.6498137	trabalhadores	-0.19287893
-4.519169	deslocam	-0.11167673
-4.519169	diariamente	-0.11167673
-4.519169	arredores	-0.11167673
-4.3469048	desespero	-0.11167673
-4.519169	assombra	-0.11167673
-4.3469048	poeta	-0.11167673
-4.0901747	vive	-0.11167673
-3.0744755	entre	-0.23935482
-4.519169	mundos	-0.11167673
-4.0901747	olá	-0.12707502
-3.9786592	conhecer	-0.12969531
-4.519169	parlamento	-0.11167673
-4.3469048	rever	-0.11167673
-4.3469048	orçamento	-0.11167673
-4.3469048	perderam	-0.11167673
-4.0901747	aula	-0.14303936
-4.519169	pembine	-0.11167673
-4.519169	montana	-0.11167673
-4.3469048	tendas	-0.11167673
-4.3469048	sinta	-0.1116767
-4.519169	espécie	-0.11167673
-4.519169	ascendente	-0.11167673
-4.3469048	nicole	-0.11167673
-4.519169	confidenciais	-0.11167673
-3.5296967	menos	-0.12141228
-4.519169	expressamente	-0.11167673
-4.519169	declarado	-0.11167673
-4.0901747	contrário	-0.13899289
-4.3469048	trilha	-0.1116767
-4.519169	sonora	-0.11167673
-4.3469048	today	-0.11167673
-4.519169	kris	-0.11167673
-4.519169	aquino	-0.11167673
-4.240604	prateleiras	-0.1116767
-4.3469048	carregadas	-0.11167673
-3.6985753	vários	-0.11651721
-4.519169	frascos	-0.11167673
-4.519169	perfume	-0.11167673
-3.6498137	perder	-0.21107563
-4.519169	aprendera	-0.11167673
-3.8164191	chá	-0.12969531
-4.3469048	servido	-0.16814321
-4.240604	copos	-0.14849393
-4.3469048	argumento	-0.11167673
-4.240604	inscrição	-0.1116767
-4.3469048	reflete	-0.11167673
-4.519169	legado	-0.11167673
-4.519169	registrante	-0.11167673
-4.0901747	tive	-0.13339049
-4.519169	memorando	-0.11167673
-4.519169	art	-0.11167673
-3.8164191	papel	-0.24928437
-4.3469048	cerco	-0.11167673
-3.6985753	praticando	-0.12360565
-3.8900068	corte	-0.1116767
-4.519169	poste	-0.1116767
-3.4357057	rosa	-0.18980438
-3.6985753	fátima	-0.4173134
-3.6985753	apareceu	-0.27365884
-4.0901747	entrada	-0.15332355
-3.9786592	segurança	-0.23935482
-3.6059785	leve	-0.19930404
-4.3469048	pingue	-0.16814321
-4.519169	pongue	-0.11167673
-4.0901747	acordo	-0.11167673
-4.3469048	dicionário	-0.11167673
-4.519169	gizmo	-0.11167673
-4.519169	gadget	-0.11167673
-4.3469048	orquestra	-0.11167673
-4.0901747	cordas	-0.11167673
-4.0901747	igreja	-0.12969531
-3.8164191	assiste	-0.30919927
-4.519169	olivia	-0.11167673
-4.519169	alcançou	-0.11167673
-3.8900068	caindo	-0.12360565
-4.519169	fechando	-0.11167673
-3.8900068	calças	-0.13899289
-3.8900068	caminhão	-0.18937007
-4.3469048	bombeiros	-0.11167673
-3.8164191	longa	-0.12512007
-4.240604	murmúrio	-0.1116767
-4.519169	durou	-0.11167673
-3.6498137	simples	-0.22715862
-4.3469048	juramento	-0.16814321
-4.240604	cobertas	-0.13899289
-4.3469048	pasta	-0.11167673
-4.519169	grossa	-0.11167673
-3.8900068	nesse	-0.11167673
-4.519169	pedirei	-0.11167673
-4.519169	diretores	-0.11167673
-4.519169	executivos	-0.11167673
-4.519169	retirem	-0.11167673
-4.0901747	iria	-0.1116767
-4.3469048	transformar	-0.16814321
-4.3469048	retornando	-0.16814321
-4.240604	pop	-0.1116767
-4.0901747	popular	-0.4229067
-4.3469048	pressa	-0.11167673
-3.496055	escrever	-0.25453585
-4.519169	exato	-0.11167673
-4.0901747	condição	-0.11167673
-4.240604	séria	-0.14849393
-4.519169	assustou	-0.11167673
-3.8164191	montanhas	-0.13899289
-3.9786592	mar	-0.19423142
-4.519169	travou	-0.11167673
-4.240604	domingo	-0.13899289
-3.9786592	abra	-0.17800686
-4.3469048	notas	-0.11167673
-4.519169	músico	-0.11167673
-4.0901747	chega	-0.13899289
-4.3469048	fã	-0.14849393
-4.3469048	platéia	-0.14849393
-4.519169	fantasiada	-0.11167673
-4.3469048	marchando	-0.16814321
-4.3469048	tambor	-0.13339049
-4.0901747	piloto	-0.2738399
-4.240604	rodeio	-0.13899289
-4.3469048	cobrança	-0.11167673
-4.3469048	touro	-0.1116767
-4.519169	escrevemos	-0.11167673
-4.0901747	inútil	-0.13899289
-4.3469048	vassoura	-0.11167673
-4.519169	feller	-0.11167673
-3.8900068	meses	-0.3675026
-4.0901747	fevereiro	-0.1116767
-4.3469048	derramando	-0.11167673
-4.519169	saquinhos	-0.11167673
-4.3469048	placa	-0.13339049
-4.240604	prende	-0.15624729
-4.240604	nascido	-0.14849393
-4.519169	ciano	-0.11167673
-4.519169	recife	-0.11167673
-3.8900068	capital	-0.13899289
-4.519169	pernanbuco	-0.11167673
-4.240604	tocam	-0.1116767
-3.566165	instrumentos	-0.13339049
-4.240604	motor	-0.14849393
-4.519169	apoderou	-0.11167673
-4.519169	tornam	-0.11167673
-4.0901747	descansando	-0.13899289
-4.240604	degraus	-0.13899289
-4.3469048	ferramenta	-0.11167673
-4.519169	identificável	-0.11167673
-4.240604	especialistas	-0.1116767
-4.3469048	representam	-0.11167673
-4.519169	acreditam	-0.11167673
-4.519169	transmitem	-0.11167673
-4.519169	chora	-0.11167673
-3.6059785	andar	-0.36106163
-4.519169	auxiliada	-0.11167673
-4.240604	adulto	-0.15624729
-3.6498137	guerra	-0.23848635
-4.240604	salão	-0.14849393
-4.3469048	assembléia	-0.11167673
-3.7535124	principal	-0.25690067
-4.519169	sotaque	-0.11167673
-4.240604	esperado	-0.14849393
-4.519169	estudei	-0.11167673
-4.240604	c	-0.14849393
-4.240604	universidade	-0.11167673
-3.9786592	pegue	-0.21107563
-3.4084098	rapidamente	-0.3670631
-4.3469048	dado	-0.11167673
-4.0901747	espanha	-0.11167673
-4.240604	portugal	-0.14849393
-3.7535124	deixou	-0.13339049
-4.240604	pensamentos	-0.13899289
-4.519169	adorável	-0.11167673
-4.519169	funcionou	-0.11167673
-4.240604	pais	-0.3259967
-4.0901747	macho	-0.12512007
-4.519169	descamisado	-0.11167673
-4.3469048	surfa	-0.11167673
-4.240604	brinquedo	-0.20869981
-4.519169	estágios	-0.11167673
-4.240604	anteriores	-0.1116767
-4.519169	aperto	-0.11167673
-4.240604	balcão	-0.14849393
-3.8900068	metal	-0.16711937
-4.0901747	pretas	-0.16814321
-3.6498137	perguntou	-0.27372348
-3.8900068	chefe	-0.12239794
-3.6059785	dormindo	-0.30099273
-4.0901747	piano	-0.13899289
-4.0901747	empurrando	-0.1116767
-4.3469048	porcos	-0.11167673
-4.240604	vacas	-0.1116767
-4.519169	corriam	-0.11167673
-3.9786592	oásis	-0.30265814
-4.0901747	obrigado	-0.203619
-4.519169	parágrafo	-0.11167673
-4.519169	sublinhar	-0.11167673
-4.519169	gravidade	-0.11167673
-4.519169	refinaria	-0.11167673
-3.8900068	milhões	-0.7308722
-4.240604	maneiras	-0.14849393
-4.3469048	santo	-0.16814321
-4.240604	caro	-0.13339049
-3.8900068	vestida	-0.22101875
-3.6985753	colorida	-0.27365884
-4.3469048	levantando	-0.1116767
-4.519169	capo	-0.11167673
-4.240604	falcão	-0.11167673
-4.3469048	nutre	-0.11167673
-4.519169	emails	-0.11167673
-4.240604	youtube	-0.13899289
-4.519169	rewind	-0.11167673
-3.9786592	felicidade	-0.12360565
-4.3469048	cérebro	-0.1116767
-4.3469048	encontram	-0.11167673
-4.240604	porco	-0.11167673
-4.519169	espinho	-0.11167673
-4.3469048	ensolarado	-0.11167673
-4.519169	lembram	-0.11167673
-4.0901747	asiáticos	-0.11167673
-3.8900068	bandeiras	-0.12969531
-4.519169	descalça	-0.11167673
-4.3469048	camisola	-0.11167673
-3.8164191	conversa	-0.18523301
-4.3469048	ventos	-0.11167673
-3.8900068	segundo	-0.11167673
-4.240604	aba	-0.13899289
-3.9786592	processo	-0.22250631
-4.519169	perfil	-0.11167673
-4.519169	longitudinal	-0.11167673
-4.3469048	eixo	-0.11167673
-4.519169	vias	-0.11167673
-4.519169	públicas	-0.11167673
-4.519169	partição	-0.11167673
-3.7535124	doce	-0.22250631
-4.519169	armagurado	-0.11167673
-4.519169	arremesse	-0.11167673
-4.240604	palha	-0.13899289
-4.0901747	pensei	-0.24092796
-4.519169	desaparafusar	-0.11167673
-4.0901747	automático	-0.11167673
-3.8900068	linda	-0.11167673
-4.519169	chatice	-0.11167673
-4.0901747	carlos	-0.11167673
-4.519169	alberto	-0.11167673
-4.240604	pergunta	-0.13339049
-4.519169	monociclo	-0.11167673
-4.519169	abatido	-0.11167673
-4.3469048	taça	-0.11167673
-4.519169	derramou	-0.11167673
-3.8900068	conteúdo	-0.11167673
-4.0901747	horário	-0.12969531
-4.240604	pesca	-0.1116767
-4.519169	voce	-0.11167673
-3.8164191	fumando	-0.14303936
-4.519169	cigarro	-0.1116767
-3.6985753	passa	-0.3301632
-4.519169	cometem	-0.11167673
-4.3469048	mesmos	-0.14849393
-4.0901747	erros	-0.11167673
-4.519169	repetidamente	-0.11167673
-3.9786592	rico	-0.11167673
-4.3469048	pensado	-0.11167673
-3.8900068	naquela	-0.26677254
-4.240604	caminhantes	-0.1116767
-4.240604	mapa	-0.12969531
-4.3469048	dentista	-0.11167673
-3.8164191	jogador	-0.5291124
-4.3469048	bloquear	-0.14849393
-4.240604	aparecer	-0.1116767
-4.3469048	isolamento	-0.11167673
-4.519169	parcial	-0.11167673
-4.519169	ejeção	-0.11167673
-3.8164191	massa	-0.19796216
-4.519169	coronal	-0.11167673
-4.519169	mascarou	-0.11167673
-3.8164191	luta	-0.12239794
-4.519169	foge	-0.11167673
-4.240604	lutar	-0.1116767
-4.519169	apreender	-0.11167673
-4.240604	post	-0.14849393
-4.0901747	haver	-0.12141228
-4.519169	semelhanças	-0.11167673
-4.240604	cai	-0.1116767
-4.519169	rúgbi	-0.11167673
-4.3469048	elásticos	-0.11167673
-4.519169	capilares	-0.11167673
-4.519169	tendem	-0.11167673
-4.240604	limpar	-0.11167673
-4.3469048	latão	-0.11167673
-4.240604	sujo	-0.42984223
-4.519169	petúnias	-0.11167673
-3.7535124	flores	-0.20103855
-4.0901747	paixão	-0.3259967
-4.519169	lésbica	-0.11167673
-3.8900068	máquina	-0.35007238
-4.519169	barulhenta	-0.11167673
-3.9786592	roupa	-0.1260313
-3.9786592	seca	-0.4229067
-4.0901747	gostam	-0.3259967
-4.519169	gaivotas	-0.11167673
-3.6985753	sentiu	-0.13339049
-4.519169	tremendamente	-0.11167673
-3.9786592	mochila	-0.1116767
-3.6985753	usa	-0.12239794
-4.3469048	teto	-0.11167673
-4.3469048	compre	-0.12707502
-4.3469048	pacotes	-0.1116767
-3.6059785	vale	-0.26287484
-4.0901747	fotografia	-0.11167673
-3.6498137	the	-0.11167673
-4.3469048	new	-0.11167673
-4.519169	people	-0.11167673
-3.8900068	certamente	-0.11167673
-4.519169	resistir	-0.11167673
-4.3469048	causar	-0.11167673
-4.3469048	ansiedade	-0.11167673
-4.0901747	padeiro	-0.11167673
-4.519169	vendedor	-0.1116767
-3.8164191	preparando	-0.13339049
-3.9786592	venda	-0.13339049
-3.8900068	aprender	-0.15332355
-4.3469048	entra	-0.11167673
-3.7535124	meninos	-0.17177185
-4.3469048	patins	-0.1116767
-3.6985753	maneira	-0.30919927
-4.519169	instalando	-0.11167673
-4.3469048	telha	-0.1116767
-4.3469048	banheiro	-0.13899289
-3.8164191	natureza	-0.360809
-3.566165	pula	-0.3512495
-4.240604	especialmente	-0.1116767
-4.240604	participando	-0.14849393
-4.3469048	beira	-0.11167673
-4.0901747	cair	-0.3259967
-4.3469048	aluno	-0.13899289
-4.519169	produziu	-0.11167673
-3.8900068	texto	-0.20869981
-3.8164191	professor	-0.19287893
-3.8164191	pedido	-0.2989199
-4.3469048	peças	-0.11167673
-3.9786592	xadrez	-0.12141228
-4.0901747	descer	-0.13899289
-3.8164191	subir	-0.13899289
-4.519169	cabines	-0.11167673
-4.519169	tanta	-0.11167673
-3.9786592	fome	-0.30919927
-4.519169	desmaiar	-0.11167673
-3.8900068	curta	-0.4199679
-4.519169	amantes	-0.11167673
-4.519169	beijam	-0.11167673
-4.519169	separarem	-0.11167673
-4.3469048	caminhos	-0.11167673
-4.519169	abrirão	-0.11167673
-4.519169	reunidas	-0.11167673
-4.519169	depressa	-0.11167673
-4.240604	irritado	-0.42984223
-4.240604	suéter	-0.13899289
-4.519169	flanela	-0.11167673
-4.519169	sandálias	-0.1116767
-4.3469048	golfe	-0.16814321
-4.519169	miniatura	-0.11167673
-3.8164191	ruim	-0.30265814
-4.3469048	exaustos	-0.11167673
-4.519169	conversavam	-0.11167673
-4.519169	sugeriu	-0.11167673
-4.0901747	marrons	-0.1116767
-4.519169	chamei	-0.11167673
-4.0901747	benjamin	-0.3259967
-4.519169	asa	-0.11167673
-3.3355167	ficou	-0.15110554
-4.519169	confesso	-0.11167673
-4.3469048	coragem	-0.11167673
-4.3469048	arremessador	-0.11167673
-3.8900068	trabalham	-0.35302114
-4.240604	estrutura	-0.13339049
-4.240604	sim	-0.17207561
-4.0901747	acontecendo	-0.24225251
-4.0901747	voltei	-0.3259967
-3.9786592	desfrutando	-0.4229067
-4.0901747	bebida	-0.20574814
-4.240604	supermercado	-0.14849393
-4.240604	elefante	-0.13339049
-3.8900068	águas	-0.11167673
-4.519169	zumbis	-0.11167673
-4.519169	desfilando	-0.11167673
-4.240604	ruas	-0.13339049
-3.8164191	bebendo	-0.12239794
-4.519169	previsão	-0.11167673
-4.3469048	cisterna	-0.11167673
-4.3469048	milhão	-0.11167673
-4.519169	desmontaram	-0.11167673
-4.519169	intrigante	-0.11167673
-3.8164191	velhos	-0.12239794
-4.0901747	sábios	-0.13899289
-4.240604	últimas	-0.14849393
-4.240604	declaração	-0.14849393
-4.240604	limão	-0.11167673
-4.519169	aliviados	-0.11167673
-4.240604	felizes	-0.3259967
-3.7535124	ganhar	-0.14849393
-4.519169	morando	-0.11167673
-4.240604	geladeira	-0.14849393
-4.240604	chocado	-0.42984223
-4.519169	cãibra	-0.11167673
-4.0901747	perigo	-0.2738399
-3.6985753	procurando	-0.18603612
-3.9786592	motorista	-0.30919927
-4.3469048	snowboard	-0.1116767
-3.8900068	preocupado	-0.3675026
-4.3469048	fornecer	-0.11167673
-4.519169	comparáveis	-0.11167673
-3.7535124	estado	-0.12969531
-4.3469048	técnica	-0.1116767
-4.519169	encher	-0.11167673
-4.519169	arquibancadas	-0.11167673
-3.6059785	logo	-0.12059256
-4.519169	existo	-0.11167673
-4.519169	cavalgaram	-0.11167673
-3.9786592	inteiro	-0.4229067
-3.6985753	finalmente	-0.16115087
-4.3469048	corri	-0.16814321
-4.240604	comercial	-0.1116767
-3.6985753	ajudar	-0.23935482
-4.519169	descubra	-0.11167673
-4.519169	futura	-0.11167673
-4.0901747	tornar	-0.11167673
-4.3469048	barreira	-0.16814321
-4.519169	pedaço	-0.11167673
-4.3469048	perfurando	-0.16814321
-4.240604	governo	-0.11167673
-4.0901747	pau	-0.1116767
-4.519169	certifique	-0.11167673
-4.519169	drivers	-0.11167673
-4.3469048	recentes	-0.11167673
-4.519169	nvidia	-0.11167673
-4.519169	instalados	-0.11167673
-4.0901747	prancha	-0.13899289
-4.3469048	enguia	-0.11167673
-4.519169	escapa	-0.11167673
-3.8164191	saltam	-0.13587156
-4.519169	afogando	-0.11167673
-4.3469048	agarrar	-0.11167673
-4.519169	canudo	-0.11167673
-3.6985753	cinza	-0.26441428
-4.519169	licorice	-0.11167673
-4.519169	mastigável	-0.11167673
-4.3469048	hipoteca	-0.11167673
-4.3469048	atraso	-0.11167673
-4.3469048	propõe	-0.11167673
-4.519169	dispõe	-0.11167673
-3.6059785	coberta	-0.50549394
-4.3469048	tatuagens	-0.11167673
-3.9786592	roxa	-0.11167673
-4.519169	preocupante	-0.11167673
-4.240604	rádio	-0.11167673
-4.0901747	toque	-0.12828241
-4.3469048	operadores	-0.11167673
-4.519169	telecomunicações	-0.11167673
-4.0901747	posição	-0.11167673
-4.519169	valencianismo	-0.11167673
-3.8164191	encontrado	-0.22101875
-4.519169	fundamental	-0.1116767
-4.3469048	fará	-0.11167673
-4.240604	limpeza	-0.11167673
-4.519169	amorosa	-0.11167673
-4.240604	apresentar	-0.1116767
-4.3469048	novembro	-0.13899289
-3.8900068	marido	-0.1116767
-4.3469048	acordado	-0.11167673
-4.519169	normas	-0.11167673
-4.3469048	gerais	-0.11167673
-4.519169	aplicáveis	-0.11167673
-4.3469048	magro	-0.11167673
-4.240604	cauda	-0.1116767
-4.519169	viajando	-0.11167673
-4.3469048	embaixo	-0.11167673
-4.519169	assobiando	-0.11167673
-4.519169	rosnando	-0.11167673
-4.519169	barracas	-0.11167673
-3.6985753	morrer	-0.3301632
-4.0901747	conheço	-0.11167673
-4.3469048	pois	-0.1116767
-4.519169	economiza	-0.11167673
-4.0901747	alquimistas	-0.11167673
-4.3469048	caem	-0.16814321
-4.240604	sonhar	-0.11167673
-4.240604	pena	-0.12512007
-4.3469048	decidi	-0.11167673
-4.519169	disponibilizá	-0.11167673
-4.3469048	github	-0.14849393
-3.6985753	cinquenta	-0.13339049
-4.240604	frase	-0.20574814
-4.3469048	aparece	-0.11167673
-3.8900068	primeira	-0.11834638
-4.240604	turma	-0.1116767
-4.519169	composta	-0.11167673
-3.566165	pelos	-0.1116767
-4.3469048	ricos	-0.11167673
-4.0901747	mostrar	-0.11167673
-4.519169	ann	-0.11167673
-4.3469048	compromisso	-0.11167673
-4.519169	alterado	-0.11167673
-4.240604	viram	-0.14849393
-4.519169	acolheu	-0.11167673
-4.519169	somente	-0.11167673
-4.3469048	mudo	-0.11167673
-4.240604	satisfeito	-0.14849393
-4.240604	consigo	-0.12360565
-4.3469048	richard	-0.11167673
-4.519169	acampar	-0.11167673
-4.519169	diziam	-0.11167673
-4.240604	ciganos	-0.14849393
-4.3469048	passavam	-0.1116767
-4.519169	enganando	-0.11167673
-4.3469048	raça	-0.11167673
-4.519169	alemão	-0.1116767
-4.519169	aro	-0.11167673
-3.8900068	diga	-0.13200112
-4.3469048	chovendo	-0.1116767
-4.519169	absorção	-0.11167673
-3.566165	seria	-0.19930404
-4.519169	pinguins	-0.11167673
-4.519169	marchavam	-0.11167673
-3.6985753	comprou	-0.22662568
-4.3469048	smartphone	-0.16814321
-4.3469048	imploro	-0.1116767
-4.240604	graffiti	-0.42984223
-4.3469048	continuo	-0.11167673
-4.240604	perdendo	-0.14849393
-4.519169	reportagem	-0.11167673
-4.519169	enganosa	-0.11167673
-4.519169	invenção	-0.11167673
-4.3469048	significar	-0.11167673
-4.3469048	doenças	-0.11167673
-4.3469048	indicador	-0.11167673
-4.3469048	tecnologia	-0.1116767
-3.6498137	novos	-0.11167673
-4.0901747	meios	-0.13899289
-4.240604	conexão	-0.11167673
-4.240604	lançados	-0.13899289
-4.519169	sons	-0.11167673
-4.0901747	pararam	-0.13899289
-4.519169	irrita	-0.11167673
-4.519169	besteira	-0.11167673
-4.519169	aflito	-0.11167673
-4.240604	aparente	-0.14849393
-4.3469048	graças	-0.11167673
-3.7535124	ouro	-0.16291568
-4.3469048	descoberto	-0.11167673
-3.8900068	trinta	-0.2399889
-4.519169	vieiras	-0.11167673
-4.0901747	sentindo	-0.11167673
-3.9786592	lei	-0.15624729
-4.519169	retroativa	-0.11167673
-4.240604	curtos	-0.1116767
-3.6985753	voz	-0.118794695
-3.3827286	falando	-0.33564556
-4.519169	camila	-0.11167673
-4.240604	entendi	-0.14849393
-3.566165	quer	-0.27019408
-4.519169	varicela	-0.11167673
-4.3469048	desajeitada	-0.16814321
-4.519169	merrygoround	-0.11167673
-4.240604	tratamento	-0.13899289
-4.3469048	traga	-0.1116767
-4.240604	humanos	-0.11167673
-4.519169	jumento	-0.11167673
-4.519169	semelhantes	-0.11167673
-3.7535124	assistindo	-0.360809
-4.0901747	facebook	-0.13339049
-4.240604	privacidade	-0.11167673
-4.3469048	cadeia	-0.16814321
-4.519169	absorveu	-0.11167673
-4.519169	esponja	-0.11167673
-3.8900068	preso	-0.1116767
-4.240604	conto	-0.1116767
-4.519169	detalhes	-0.1116767
-4.240604	daquele	-0.1116767
-4.3469048	teu	-0.11167673
-4.3469048	empregada	-0.11167673
-4.519169	comprido	-0.11167673
-4.519169	seguranças	-0.11167673
-3.7535124	passado	-0.22662568
-4.3469048	priorizar	-0.11167673
-3.6498137	nessa	-0.12239794
-4.3469048	separados	-0.11167673
-4.0901747	motivo	-0.24225251
-3.566165	minhas	-0.17647474
-4.519169	máscara	-0.1116767
-4.519169	proteger	-0.11167673
-3.6985753	rosto	-0.31917012
-4.519169	vapores	-0.11167673
-4.519169	pimenta	-0.11167673
-4.3469048	picante	-0.11167673
-4.519169	estive	-0.11167673
-4.519169	ajudam	-0.11167673
-4.240604	missão	-0.42984223
-4.3469048	desculpa	-0.11167673
-4.0901747	casal	-0.11728643
-4.0901747	asiático	-0.12360565
-4.3469048	casado	-0.11167673
-3.8900068	recebe	-0.24225251
-4.519169	pétalas	-0.11167673
-4.519169	jogadas	-0.11167673
-3.8900068	adicionar	-0.12023238
-3.8900068	bater	-0.22250631
-4.519169	acelerou	-0.11167673
-4.3469048	ridiculamente	-0.16814321
-4.240604	passageiro	-0.13899289
-3.8900068	começaram	-0.50208795
-4.519169	lacrimejar	-0.11167673
-4.240604	transformado	-0.14849393
-4.240604	disco	-0.1116767
-4.519169	guarde	-0.11167673
-4.519169	tribune	-0.11167673
-3.7535124	esposa	-0.2170997
-4.0901747	mangas	-0.11167673
-4.3469048	roxas	-0.11167673
-4.3469048	usam	-0.11167673
-4.3469048	clipes	-0.11167673
-4.519169	jacaré	-0.11167673
-4.519169	machuca	-0.11167673
-4.519169	imaginava	-0.11167673
-4.0901747	concreto	-0.13339049
-4.519169	profere	-0.11167673
-4.240604	castelo	-0.13899289
-4.519169	plural	-0.11167673
-4.240604	rato	-0.11167673
-4.0901747	congresso	-0.13899289
-4.0901747	nacional	-0.3259967
-3.6498137	vista	-0.17647474
-3.9786592	prepara	-0.12707502
-4.519169	petisco	-0.11167673
-4.519169	coro	-0.11167673
-4.3469048	lara	-0.1116767
-3.6985753	gosta	-0.4428638
-4.519169	laranjas	-0.11167673
-3.496055	claro	-0.30265814
-4.240604	agricultores	-0.11167673
-3.7535124	precisam	-0.2962512
-4.0901747	confiar	-0.11167673
-3.9786592	tradicional	-0.2738399
-4.519169	dialeto	-0.11167673
-4.3469048	financiado	-0.11167673
-4.240604	anúncios	-0.11167673
-4.519169	doações	-0.11167673
-3.6985753	completamente	-0.11167673
-4.519169	categoria	-0.11167673
-3.9786592	querem	-0.14303936
-4.240604	hotel	-0.12969531
-4.519169	ficarei	-0.11167673
-3.8900068	televisão	-0.12707502
-4.519169	torná	-0.11167673
-3.8900068	burro	-0.24225251
-4.519169	injusto	-0.11167673
-4.519169	açougueiro	-0.11167673
-3.6985753	deu	-0.17647474
-4.519169	presunto	-0.11167673
-4.3469048	graça	-0.16814321
-4.240604	moedas	-0.1116767
-4.519169	instituição	-0.11167673
-3.7535124	encontrá	-0.39171126
-4.240604	escreve	-0.1116767
-4.519169	léguas	-0.11167673
-4.519169	submarinas	-0.11167673
-4.3469048	bastões	-0.11167673
-4.519169	esquiam	-0.11167673
-4.3469048	nevada	-0.16814321
-4.519169	batia	-0.11167673
-4.519169	golpes	-0.11167673
-4.519169	firmes	-0.11167673
-4.0901747	bicicletas	-0.15624729
-4.240604	africanos	-0.1116767
-4.519169	idades	-0.11167673
-3.7535124	cantando	-0.22662568
-4.240604	corações	-0.11167673
-4.519169	cercados	-0.11167673
-4.0901747	sentadas	-0.18603612
-4.519169	gostando	-0.11167673
-3.9786592	economia	-0.13339049
-4.240604	baseada	-0.14849393
-4.519169	avestruz	-0.11167673
-4.3469048	vazios	-0.11167673
-4.240604	estes	-0.11167673
-4.3469048	auscultadores	-0.11167673
-4.240604	ouvidos	-0.13899289
-4.240604	usava	-0.13899289
-4.519169	couraça	-0.11167673
-4.240604	performance	-0.1116767
-3.9786592	arte	-0.18523301
-4.519169	barroca	-0.11167673
-4.519169	manchas	-0.11167673
-4.519169	salpicadas	-0.11167673
-4.240604	tinta	-0.1116767
-4.240604	suave	-0.1116767
-3.9786592	possa	-0.18523301
-4.519169	desenvolvido	-0.11167673
-4.519169	beta	-0.11167673
-4.240604	pago	-0.14849393
-4.519169	caseira	-0.11167673
-4.519169	organizados	-0.11167673
-4.519169	lesoto	-0.11167673
-4.519169	steven	-0.11167673
-3.8900068	tocou	-0.12707502
-4.240604	trás	-0.13339049
-4.240604	pescoço	-0.1116767
-4.519169	prestou	-0.11167673
-4.3469048	viajantes	-0.11167673
-4.519169	tentá	-0.11167673
-4.519169	libra	-0.11167673
-4.0901747	chinesa	-0.13899289
-4.3469048	tabela	-0.1116767
-4.3469048	procurado	-0.11167673
-4.519169	roubada	-0.11167673
-4.0901747	passada	-0.24225251
-4.0901747	álbum	-0.13137104
-4.519169	bernd	-0.11167673
-4.519169	begemann	-0.11167673
-4.240604	sofá	-0.12360565
-3.9786592	tomando	-0.14849393
-3.8164191	bebidas	-0.2790107
-4.3469048	manipulação	-0.11167673
-4.0901747	voltando	-0.12969531
-4.240604	àquela	-0.1116767
-3.7535124	escola	-0.26287484
-4.240604	particular	-0.13899289
-4.519169	ansiosa	-0.11167673
-4.240604	tamanho	-0.1116767
-4.3469048	quis	-0.1116767
-4.3469048	corta	-0.14849393
-4.0901747	bolo	-0.12512007
-4.3469048	entretenimento	-0.11167673
-4.240604	pense	-0.1116767
-4.519169	escadaria	-0.11167673
-4.3469048	camisetas	-0.11167673
-4.3469048	veneno	-0.11167673
-4.3469048	escapar	-0.1116767
-3.5296967	começa	-0.2770146
-3.9786592	quarenta	-0.11167673
-4.3469048	cavalheiro	-0.11167673
-3.7535124	limpa	-0.13899289
-4.240604	antiga	-0.11167673
-4.519169	ferrari	-0.11167673
-4.519169	compactada	-0.11167673
-4.3469048	cubo	-0.11167673
-4.240604	ferro	-0.11167673
-4.519169	mostrada	-0.11167673
-4.519169	cemitério	-0.11167673
-4.519169	algoritmos	-0.11167673
-4.3469048	compressão	-0.14849393
-3.8900068	dados	-0.12360565
-4.519169	recrutou	-0.11167673
-4.519169	graduados	-0.11167673
-4.519169	oferecendo	-0.11167673
-4.519169	altas	-0.11167673
-4.519169	recompensas	-0.11167673
-4.519169	alsaciano	-0.11167673
-4.519169	chamamos	-0.11167673
-4.519169	papoula	-0.11167673
-3.8900068	colegas	-0.22101875
-4.3469048	skatista	-0.11167673
-4.240604	sexo	-0.11167673
-3.9786592	masculino	-0.1116767
-4.3469048	turno	-0.16814321
-4.0901747	discutir	-0.11167673
-4.0901747	nostalgia	-0.13339049
-3.8900068	costumava	-0.12512007
-4.3469048	trajes	-0.11167673
-4.0901747	tradicionais	-0.13899289
-4.0901747	dançam	-0.13899289
-4.3469048	chorando	-0.11167673
-3.8164191	conta	-0.13137104
-4.0901747	exército	-0.1116767
-4.240604	arma	-0.2738399
-3.9786592	internet	-0.12969531
-3.7535124	colocar	-0.12360565
-4.519169	necessariamente	-0.11167673
-4.240604	famoso	-0.11167673
-4.3469048	apareço	-0.11167673
-4.519169	penteado	-0.11167673
-4.519169	entanto	-0.11167673
-4.240604	voo	-0.1116767
-4.0901747	inverno	-0.2738399
-4.519169	delas	-0.11167673
-3.6498137	cheia	-0.7239367
-4.519169	descuidado	-0.11167673
-4.3469048	granizo	-0.11167673
-3.9786592	bateu	-0.13339049
-4.3469048	queimada	-0.11167673
-4.519169	desabou	-0.11167673
-4.3469048	bases	-0.11167673
-3.8900068	procurar	-0.11167673
-4.3469048	infeliz	-0.11167673
-3.8164191	come	-0.11167673
-4.240604	lanche	-0.14849393
-3.9786592	irmão	-0.1823376
-4.519169	esperávamos	-0.11167673
-4.519169	sippie	-0.11167673
-4.519169	wallace	-0.11167673
-4.3469048	vimeo	-0.11167673
-4.3469048	aguarde	-0.11167673
-4.3469048	droga	-0.11167673
-4.519169	notei	-0.11167673
-3.4084098	respondeu	-0.4936872
-4.3469048	param	-0.11167673
-4.240604	tráfego	-0.12969531
-4.3469048	cruzamento	-0.13899289
-4.0901747	desempenho	-0.24225251
-3.7535124	pior	-0.18523301
-4.519169	sumiram	-0.11167673
-4.0901747	vestiu	-0.13899289
-4.3469048	linho	-0.11167673
-4.240604	agir	-0.1116767
-4.519169	rema	-0.11167673
-4.3469048	caiaque	-0.1116767
-4.519169	costa	-0.11167673
-4.519169	cintila	-0.11167673
-4.519169	medium	-0.11167673
-4.519169	respostas	-0.11167673
-4.3469048	email	-0.11167673
-4.519169	cuide	-0.11167673
-4.3469048	enferrujada	-0.16814321
-4.519169	oh	-0.11167673
-3.8164191	natal	-0.1715117
-3.9786592	numa	-0.11167673
-4.3469048	noturna	-0.16814321
-3.6498137	tirando	-0.4199679
-4.3469048	encontramos	-0.11167673
-4.3469048	segundas	-0.16814321
-4.519169	feiras	-0.11167673
-3.8900068	empresa	-0.22715862
-4.519169	anunciou	-0.11167673
-4.519169	parcerias	-0.11167673
-4.519169	empresas	-0.11167673
-3.8900068	brinca	-0.30919927
-3.9786592	dispositivo	-0.11167673
-4.0901747	bronzeado	-0.24225251
-4.519169	gambier	-0.11167673
-4.519169	fama	-0.11167673
-4.3469048	hollywood	-0.11167673
-4.519169	pardais	-0.11167673
-4.3469048	parassem	-0.11167673
-4.3469048	semear	-0.11167673
-4.519169	colhidos	-0.11167673
-4.519169	tentado	-0.11167673
-3.6498137	descobrir	-0.13339049
-4.519169	cigano	-0.11167673
-4.519169	forneça	-0.11167673
-4.240604	profissionais	-0.14849393
-4.519169	condutor	-0.11167673
-3.8900068	trem	-0.23902239
-4.240604	possui	-0.1116767
-4.3469048	katie	-0.11167673
-4.0901747	gritou	-0.11167673
-4.3469048	iam	-0.11167673
-3.8900068	favorito	-0.7308722
-4.3469048	cantor	-0.11167673
-4.3469048	microsoft	-0.1116767
-4.519169	suaviza	-0.11167673
-4.3469048	vazias	-0.11167673
-4.3469048	geléia	-0.1116767
-4.519169	bolachas	-0.11167673
-4.3469048	complicada	-0.11167673
-4.519169	convidadas	-0.11167673
-4.3469048	perigosa	-0.16814321
-4.3469048	comece	-0.14849393
-3.8164191	vinho	-0.25979477
-4.3469048	importa	-0.12707502
-4.519169	cintilante	-0.11167673
-4.519169	emanando	-0.11167673
-4.240604	estátua	-0.16814321
-4.519169	boxe	-0.11167673
-3.8164191	ali	-0.20574814
-4.519169	phillips	-0.11167673
-4.519169	creditado	-0.11167673
-4.3469048	descoberta	-0.11167673
-4.519169	baterias	-0.11167673
-4.519169	temerário	-0.11167673
-4.519169	determinação	-0.11167673
-4.519169	homen	-0.11167673
-4.0901747	coletes	-0.1116767
-4.240604	salva	-0.14849393
-4.240604	remos	-0.1116767
-4.519169	jangada	-0.11167673
-4.519169	cobrou	-0.11167673
-4.0901747	povos	-0.12969531
-3.6059785	sentam	-0.5432825
-4.3469048	doca	-0.1116767
-4.3469048	infectada	-0.16814321
-4.3469048	gripe	-0.16814321
-4.0901747	curtindo	-0.3259967
-4.240604	frisbee	-0.11167673
-4.3469048	mude	-0.11167673
-4.240604	mouse	-0.1116767
-4.3469048	objetivo	-0.11167673
-4.519169	contrata	-0.11167673
-4.519169	personal	-0.11167673
-4.519169	trainers	-0.11167673
-3.6059785	deles	-0.33136103
-4.0901747	treinar	-0.11167673
-4.519169	cabide	-0.11167673
-3.8164191	nariz	-0.19423142
-3.9786592	isto	-0.13339049
-3.9786592	construindo	-0.14303936
-4.3469048	detalhado	-0.11167673
-4.3469048	chefes	-0.13899289
-4.519169	explosões	-0.11167673
-4.519169	nucleares	-0.11167673
-4.519169	gravou	-0.11167673
-4.519169	filmadora	-0.11167673
-4.0901747	prova	-0.13339049
-4.519169	impermeável	-0.11167673
-4.519169	shoreland	-0.11167673
-4.0901747	disseram	-0.11167673
-3.9786592	tomar	-0.12969531
-4.519169	apaixonei	-0.11167673
-4.519169	montserrat	-0.11167673
-4.0901747	peter	-0.11167673
-4.519169	horrorizado	-0.11167673
-3.5296967	sabe	-0.26460207
-4.0901747	raiva	-0.20574814
-4.519169	manchetes	-0.11167673
-4.240604	instalações	-0.1116767
-4.0901747	única	-0.11167673
-4.519169	infraestrutura	-0.11167673
-4.519169	permitida	-0.11167673
-4.519169	mail	-0.1116767
-4.519169	mercearias	-0.11167673
-3.8900068	caras	-0.25632632
-4.519169	trabalharem	-0.11167673
-4.0901747	acredito	-0.14303936
-4.519169	vodu	-0.11167673
-4.0901747	chance	-0.3259967
-4.3469048	amo	-0.1116767
-4.519169	shooters	-0.11167673
-4.519169	call	-0.11167673
-4.240604	of	-0.14849393
-4.519169	duty	-0.11167673
-3.5296967	acabou	-0.50651836
-3.9786592	poço	-0.12512007
-4.3469048	fugindo	-0.11167673
-3.8900068	filhos	-0.27714342
-4.519169	luar	-0.11167673
-3.8164191	maravilhoso	-0.797819
-4.0901747	lutando	-0.12707502
-4.519169	cinegrafista	-0.11167673
-4.519169	filmando	-0.11167673
-4.519169	dissipador	-0.11167673
-4.519169	conectado	-0.11167673
-4.240604	externas	-0.1116767
-4.519169	sentiram	-0.11167673
-4.519169	alegres	-0.11167673
-4.240604	navio	-0.11167673
-3.5296967	chegou	-0.1802812
-4.3469048	rum	-0.11167673
-4.519169	perfumado	-0.11167673
-4.240604	descobriu	-0.14849393
-4.519169	ligada	-0.11167673
-3.566165	olham	-0.4199679
-4.240604	microfone	-0.12512007
-4.519169	filmado	-0.11167673
-4.519169	oblonga	-0.11167673
-4.3469048	pessoalmente	-0.11167673
-3.8900068	construir	-0.12512007
-4.519169	vitrine	-0.11167673
-4.3469048	adolescente	-0.11167673
-4.240604	truques	-0.11167673
-4.3469048	grafite	-0.11167673
-4.0901747	decidir	-0.13339049
-4.519169	carvalhos	-0.11167673
-4.3469048	poderosos	-0.11167673
-4.519169	bolotas	-0.11167673
-4.240604	alaranjada	-0.14849393
-4.519169	queimei	-0.11167673
-4.519169	omelete	-0.11167673
-3.8164191	resposta	-0.25055754
-4.519169	ladeado	-0.11167673
-4.519169	gema	-0.11167673
-4.519169	estimulante	-0.11167673
-4.3469048	contemplar	-0.11167673
-3.9786592	brilhava	-0.13339049
-4.3469048	museu	-0.11167673
-3.9786592	ingressos	-0.2738399
-4.3469048	transmissão	-0.1116767
-4.240604	cena	-0.12969531
-4.519169	tratar	-0.11167673
-4.519169	confirme	-0.11167673
-3.9786592	conosco	-0.11167673
-4.519169	vence	-0.11167673
-4.0901747	véspera	-0.3259967
-4.519169	reunido	-0.11167673
-3.8900068	tela	-0.16291568
-4.519169	inquestionável	-0.11167673
-4.0901747	acordou	-0.11167673
-4.3469048	pesadelo	-0.11167673
-4.519169	freezer	-0.11167673
-4.0901747	contém	-0.11167673
-4.3469048	banquete	-0.1116767
-4.0901747	portátil	-0.11167673
-4.519169	macintosh	-0.11167673
-4.519169	vagou	-0.11167673
-4.240604	mantendo	-0.1116767
-4.3469048	nu	-0.11167673
-4.519169	inclinando	-0.11167673
-3.7535124	fotos	-0.19796216
-4.3469048	cantora	-0.1116767
-4.0901747	cabelos	-0.11167673
-4.519169	loiros	-0.11167673
-4.240604	longas	-0.1116767
-4.3469048	ajoelha	-0.1116767
-4.519169	pronta	-0.11167673
-3.8164191	banda	-0.14689948
-4.3469048	pavimentada	-0.11167673
-4.0901747	olho	-0.13899289
-4.0901747	cansado	-0.15624729
-3.8900068	morte	-0.18523301
-4.519169	registrada	-0.11167673
-4.3469048	departamento	-0.16814321
-4.3469048	washington	-0.11167673
-4.519169	gravata	-0.11167673
-4.3469048	arrependimento	-0.1116767
-4.519169	tardio	-0.11167673
-4.0901747	traz	-0.11167673
-4.3469048	dano	-0.1116767
-4.519169	votaram	-0.11167673
-4.3469048	esverdeado	-0.11167673
-3.6985753	jogam	-0.24153882
-3.8164191	lindo	-0.22101875
-4.519169	demolição	-0.11167673
-4.240604	escalando	-0.11167673
-4.519169	sagradas	-0.11167673
-4.240604	apreciando	-0.1116767
-4.240604	passeio	-0.11167673
-4.519169	movimentação	-0.11167673
-4.3469048	rodas	-0.11167673
-4.519169	mangueiras	-0.11167673
-4.3469048	conectadas	-0.14849393
-4.519169	defeituoso	-0.11167673
-4.519169	relações	-0.11167673
-4.519169	pessoais	-0.11167673
-4.519169	tiveram	-0.11167673
-4.3469048	ervilhas	-0.11167673
-4.519169	expostas	-0.11167673
-3.9786592	leite	-0.2738399
-4.240604	amargo	-0.42984223
-4.519169	esperamos	-0.11167673
-4.519169	participem	-0.11167673
-3.7535124	cabeça	-0.2309167
-4.519169	reproduzir	-0.11167673
-4.0901747	noventa	-0.13339049
-4.240604	batalha	-0.1116767
-4.519169	decisiva	-0.11167673
-4.519169	travada	-0.11167673
-4.240604	dúvida	-0.1116767
-4.240604	modo	-0.11167673
-4.0901747	sopra	-0.11167673
-4.3469048	venha	-0.11167673
-4.3469048	socorro	-0.16814321
-4.519169	verificando	-0.11167673
-3.8164191	celular	-0.2619207
-4.3469048	caminhava	-0.11167673
-4.519169	participa	-0.11167673
-4.0901747	grave	-0.3259967
-4.519169	sylvester	-0.11167673
-3.8164191	precisava	-0.2399889
-4.519169	meditar	-0.11167673
-4.3469048	clarear	-0.11167673
-4.3469048	gritando	-0.11167673
-4.519169	invadindo	-0.11167673
-4.519169	gafanhotos	-0.11167673
-4.519169	entenderão	-0.11167673
-3.8164191	mostra	-0.11167673
-4.0901747	braço	-0.1116767
-3.9786592	estivesse	-0.11167673
-3.8900068	buraco	-0.21579546
-4.3469048	mau	-0.1116767
-4.0901747	culpa	-0.13899289
-4.0901747	ferramentas	-0.13899289
-3.9786592	volume	-0.12969531
-4.519169	rapazinho	-0.11167673
-3.6059785	anda	-0.25979477
-4.240604	garçom	-0.1116767
-4.3469048	cardápio	-0.14849393
-4.3469048	feitas	-0.11167673
-4.519169	serem	-0.11167673
-4.519169	quebradas	-0.11167673
-4.3469048	bastão	-0.1116767
-4.519169	desativei	-0.11167673
-4.3469048	autoridades	-0.16814321
-4.519169	certificação	-0.11167673
-4.519169	esmaecidas	-0.11167673
-4.3469048	trampolim	-0.11167673
-4.3469048	tossindo	-0.11167673
-4.0901747	piada	-0.24225251
-4.3469048	banca	-0.16814321
-3.9786592	jornal	-0.20574814
-3.6498137	lendo	-0.27714342
-4.3469048	sente	-0.1116767
-4.519169	esperançosa	-0.11167673
-4.3469048	otimista	-0.16814321
-4.3469048	entrega	-0.11167673
-4.519169	companheiro	-0.1116767
-4.519169	apple	-0.11167673
-4.519169	barata	-0.11167673
-4.519169	ajudado	-0.11167673
-4.240604	documentos	-0.1116767
-4.519169	comprovativos	-0.11167673
-4.519169	revistos	-0.11167673
-4.3469048	mantidos	-0.11167673
-4.0901747	estudar	-0.11167673
-4.240604	redes	-0.42984223
-4.519169	neurais	-0.1116767
-4.3469048	contando	-0.11167673
-4.0901747	passo	-0.14303936
-3.9786592	observam	-0.13339049
-4.519169	esquia	-0.11167673
-4.519169	exportei	-0.11167673
-3.8164191	modelo	-0.18937007
-4.519169	formato	-0.11167673
-4.519169	queridos	-0.11167673
-4.3469048	achei	-0.14849393
-4.519169	poderosa	-0.11167673
-3.7535124	vão	-0.11167673
-4.3469048	durar	-0.11167673
-4.240604	monge	-0.12969531
-3.9786592	sentada	-0.20574814
-3.7535124	num	-0.12360565
-3.7535124	acontecer	-0.25690067
-4.519169	recordou	-0.11167673
-4.240604	brilho	-0.1116767
-4.519169	notado	-0.11167673
-4.519169	mandando	-0.11167673
-4.519169	pistoleiro	-0.11167673
-4.519169	sequestrar	-0.11167673
-4.3469048	trabalhei	-0.11167673
-4.240604	cem	-0.1116767
-4.519169	freiras	-0.11167673
-4.519169	invadiram	-0.11167673
-4.519169	vaticano	-0.11167673
-3.9786592	tivesse	-0.11167673
-3.7535124	escolha	-0.22715862
-4.3469048	escolheria	-0.16814321
-4.519169	negros	-0.11167673
-4.519169	leonardo	-0.11167673
-4.519169	dicaprio	-0.11167673
-4.3469048	encarando	-0.11167673
-4.519169	dezembro	-0.11167673
-4.519169	mergulhe	-0.11167673
-3.7535124	nele	-0.855811
-4.3469048	fracasso	-0.16814321
-4.519169	beijar	-0.11167673
-4.3469048	enfrenta	-0.11167673
-4.240604	surfando	-0.13899289
-4.3469048	pensam	-0.11167673
-4.3469048	computadores	-0.11167673
-4.3469048	terão	-0.11167673
-4.0901747	sentimentos	-0.13899289
-4.0901747	aprendendo	-0.11167673
-4.3469048	espirra	-0.11167673
-4.240604	figura	-0.1116767
-4.519169	gradualmente	-0.11167673
-4.519169	turva	-0.11167673
-4.3469048	envergonhado	-0.11167673
-4.519169	confessou	-0.11167673
-4.519169	observado	-0.11167673
-3.8900068	sobe	-0.24225251
-4.519169	cofre	-0.11167673
-4.519169	parágrafos	-0.11167673
-4.519169	embaçaram	-0.11167673
-4.519169	malha	-0.11167673
-4.240604	mantém	-0.1116767
-4.519169	pintos	-0.11167673
-4.3469048	fixando	-0.11167673
-4.3469048	virada	-0.11167673
-3.9786592	ajudou	-0.11167673
-4.519169	dr	-0.11167673
-4.519169	chen	-0.11167673
-4.240604	flor	-0.24225251
-4.519169	lapela	-0.11167673
-4.3469048	cavaleiro	-0.11167673
-4.519169	obstáculo	-0.11167673
-4.3469048	desejo	-0.1116767
-4.0901747	romance	-0.12969531
-3.5296967	chamado	-0.11167673
-4.519169	holocausto	-0.11167673
-4.519169	africano	-0.11167673
-4.3469048	arquivo	-0.11167673
-4.519169	encriptado	-0.11167673
-4.240604	shopping	-0.1116767
-3.8900068	aberto	-0.12707502
-3.8164191	meia	-0.11167673
-4.519169	brick	-0.11167673
-3.8164191	mostrando	-0.13899289
-4.240604	prazo	-0.11167673
-4.519169	podermos	-0.11167673
-4.519169	engate	-0.11167673
-3.9786592	lápis	-0.12512007
-4.519169	reestruturação	-0.11167673
-4.519169	kaohsiung	-0.11167673
-3.8164191	bar	-0.18603612
-4.519169	ostras	-0.11167673
-4.240604	artigos	-0.14849393
-3.7535124	escrito	-0.1823376
-4.3469048	cego	-0.11167673
-4.3469048	chamada	-0.11167673
-4.519169	enter	-0.11167673
-4.519169	chicken	-0.11167673
-4.519169	muleta	-0.11167673
-4.3469048	outono	-0.11167673
-3.8900068	diante	-0.24225251
-4.519169	cobria	-0.11167673
-4.240604	assustador	-0.14849393
-4.519169	voltado	-0.11167673
-3.9786592	estudantes	-0.12707502
-4.240604	idiomas	-0.1116767
-4.240604	estrangeiros	-0.14849393
-3.9786592	duzentos	-0.26677254
-4.240604	ienes	-0.3259967
-4.0901747	função	-0.13339049
-3.7535124	chapéus	-0.13137104
-4.519169	inspecionaram	-0.11167673
-4.519169	maca	-0.11167673
-4.0901747	cercado	-0.55478096
-3.8900068	proteção	-0.12969531
-4.3469048	almofada	-0.11167673
-3.9786592	arroz	-0.2738399
-4.0901747	sapato	-0.13899289
-4.519169	aperta	-0.11167673
-3.9786592	balança	-0.11167673
-4.3469048	colaborar	-0.11167673
-4.0901747	definição	-0.3259967
-4.3469048	estratégia	-0.1116767
-4.240604	objetivos	-0.1116767
-3.8164191	ações	-0.20869981
-4.519169	servidores	-0.11167673
-4.0901747	comum	-0.11167673
-4.519169	conseguiam	-0.11167673
-3.8900068	lidar	-0.7308722
-4.0901747	carga	-0.11167673
-4.0901747	adolescentes	-0.11167673
-4.0901747	abraçando	-0.11167673
-4.519169	circuito	-0.11167673
-4.519169	apontei	-0.11167673
-4.240604	marte	-0.11167673
-3.6985753	ponto	-0.17207561
-4.3469048	oscar	-0.11167673
-4.519169	foxtrot	-0.11167673
-4.0901747	junto	-0.11167673
-4.3469048	chegada	-0.11167673
-4.3469048	algoritmo	-0.11167673
-4.3469048	praticam	-0.11167673
-4.3469048	kickboxing	-0.14849393
-4.3469048	martelo	-0.1116767
-3.8164191	gigante	-0.4199679
-3.9786592	gramado	-0.12707502
-4.519169	pende	-0.11167673
-4.0901747	profundo	-0.3259967
-4.519169	associados	-0.11167673
-3.8164191	bonito	-0.12512007
-4.0901747	vinhos	-0.11167673
-4.519169	estarão	-0.11167673
-4.519169	prontos	-0.11167673
-4.3469048	faixas	-0.11167673
-4.519169	sintonia	-0.11167673
-4.519169	jenny	-0.11167673
-4.519169	prairie	-0.11167673
-4.3469048	perguntei	-0.16814321
-3.8900068	ouvi	-0.12360565
-4.3469048	milho	-0.11167673
-4.3469048	grelhado	-0.16814321
-4.240604	atirar	-0.1116767
-4.519169	mirar	-0.11167673
-4.3469048	europa	-0.1116767
-3.8164191	menor	-0.24092796
-3.7535124	escuro	-0.23935482
-4.519169	festivas	-0.11167673
-4.519169	pesquise	-0.11167673
-3.8164191	imagens	-0.21107563
-4.519169	inclinada	-0.11167673
-4.519169	inline	-0.11167673
-4.519169	desorganizado	-0.11167673
-4.3469048	acontecerá	-0.11167673
-4.3469048	novecentos	-0.11167673
-4.3469048	recebeu	-0.11167673
-4.519169	prémio	-0.11167673
-4.519169	autora	-0.11167673
-3.8164191	festa	-0.2941054
-4.240604	selvagem	-0.1116767
-4.240604	urso	-0.2738399
-4.519169	polar	-0.11167673
-4.519169	nevasca	-0.11167673
-4.519169	pomona	-0.11167673
-4.240604	méxico	-0.11167673
-4.519169	mala	-0.11167673
-3.9786592	sentar	-0.13339049
-4.0901747	cadeiras	-0.13339049
-4.3469048	atordoado	-0.11167673
-4.240604	conseguir	-0.11167673
-4.519169	companhia	-0.11167673
-3.6059785	minutos	-0.25453585
-4.519169	mineração	-0.11167673
-4.519169	bitcoin	-0.11167673
-4.0901747	feita	-0.15624729
-4.3469048	placas	-0.11167673
-4.519169	gráficas	-0.11167673
-4.519169	hardware	-0.11167673
-4.519169	especializado	-0.11167673
-4.3469048	indeciso	-0.11167673
-4.3469048	extras	-0.14849393
-4.519169	começam	-0.11167673
-4.519169	trezentas	-0.11167673
-4.519169	acotovelam	-0.11167673
-4.519169	informar	-0.11167673
-4.519169	setembro	-0.11167673
-4.0901747	caça	-0.11167673
-4.519169	confie	-0.11167673
-4.519169	perturbador	-0.11167673
-4.240604	coelhos	-0.1116767
-4.3469048	gaiola	-0.16814321
-3.8900068	preço	-0.12239794
-4.240604	justo	-0.13899289
-4.519169	jon	-0.11167673
-4.519169	davis	-0.11167673
-3.8164191	mudar	-0.12707502
-4.3469048	mudança	-0.1116767
-4.519169	wenchuang	-0.11167673
-4.240604	elementos	-0.1116767
-4.3469048	doutor	-0.11167673
-4.3469048	kim	-0.11167673
-4.519169	ferida	-0.11167673
-4.519169	bandagem	-0.11167673
-4.519169	olhava	-0.11167673
-4.0901747	desapontado	-0.13899289
-4.519169	campinas	-0.11167673
-4.519169	bobo	-0.11167673
-4.519169	ensinou	-0.11167673
-4.0901747	urim	-0.55478096
-4.519169	tumim	-0.11167673
-4.519169	anciãos	-0.11167673
-4.519169	demoraram	-0.11167673
-4.519169	despertar	-0.11167673
-4.519169	trancá	-0.11167673
-4.3469048	batatas	-0.11167673
-4.519169	economizam	-0.11167673
-3.6985753	espaço	-0.17800686
-4.519169	baratas	-0.11167673
-4.519169	massas	-0.11167673
-3.9786592	faixa	-0.14849393
-4.240604	morta	-0.42984223
-4.519169	arrastam	-0.11167673
-3.9786592	malas	-0.11167673
-4.519169	escoteiros	-0.11167673
-4.519169	piper	-0.11167673
-4.519169	bocado	-0.11167673
-4.519169	pimentas	-0.11167673
-4.519169	conserva	-0.11167673
-3.8900068	sozinha	-0.12969531
-4.0901747	uniformes	-0.12512007
-4.0901747	capacetes	-0.13339049
-4.519169	wacom	-0.11167673
-4.3469048	suspeito	-0.11167673
-3.9786592	molhado	-0.13339049
-4.519169	cozinheiros	-0.11167673
-4.519169	cozinharam	-0.11167673
-4.240604	sopa	-0.13899289
-4.519169	assustadoramente	-0.11167673
-4.519169	extensa	-0.11167673
-4.519169	esporte	-0.11167673
-4.3469048	gostei	-0.11167673
-4.3469048	vimos	-0.11167673
-4.3469048	levaram	-0.11167673
-4.519169	angelina	-0.11167673
-4.519169	jolie	-0.11167673
-4.3469048	realizado	-0.11167673
-4.0901747	escritos	-0.11167673
-4.519169	compartilhamento	-0.11167673
-3.9786592	puro	-0.13339049
-4.519169	lovelace	-0.11167673
-4.519169	trocadilhos	-0.11167673
-4.3469048	ruins	-0.11167673
-4.519169	florestal	-0.11167673
-4.519169	dave	-0.11167673
-4.519169	cita	-0.11167673
-4.240604	adequado	-0.14849393
-4.519169	aplicação	-0.11167673
-4.519169	aconselhamento	-0.11167673
-4.519169	incentivos	-0.11167673
-4.519169	galo	-0.11167673
-4.519169	davam	-0.11167673
-4.519169	punhado	-0.11167673
-4.0901747	nuvens	-0.11167673
-4.519169	pairava	-0.11167673
-4.3469048	tome	-0.11167673
-4.3469048	decisão	-0.1116767
-4.240604	errada	-0.42984223
-4.3469048	égua	-0.14849393
-4.519169	potro	-0.11167673
-4.519169	saque	-0.11167673
-4.519169	contornos	-0.11167673
-4.240604	casos	-0.1116767
-4.3469048	vidro	-0.11167673
-4.519169	alinhando	-0.11167673
-4.3469048	passarela	-0.11167673
-4.519169	esportes	-0.11167673
-4.519169	hospedagem	-0.11167673
-4.519169	gratuitas	-0.11167673
-4.0901747	assumir	-0.11167673
-4.519169	tomoyasu	-0.11167673
-4.519169	hotei	-0.11167673
-3.8900068	playlist	-0.23069014
-4.519169	concentração	-0.11167673
-3.8164191	temos	-0.1116767
-4.0901747	compras	-0.13587156
-4.0901747	inimigos	-0.13899289
-4.519169	obstrui	-0.11167673
-4.519169	prender	-0.11167673
-4.519169	ditador	-0.11167673
-4.3469048	radical	-0.11167673
-4.519169	ideologia	-0.11167673
-4.240604	tampa	-0.12969531
-4.519169	jarra	-0.11167673
-4.240604	apertada	-0.14849393
-4.519169	desatarraxar	-0.11167673
-4.519169	arrumar	-0.11167673
-4.519169	ortográficos	-0.11167673
-4.519169	gabinete	-0.11167673
-4.519169	narcisos	-0.11167673
-4.240604	fundos	-0.1116767
-4.3469048	pytorch	-0.11167673
-4.3469048	pensava	-0.14849393
-4.519169	convés	-0.11167673
-3.8900068	mesma	-0.1199002
-4.519169	brandira	-0.11167673
-4.240604	continha	-0.1116767
-4.519169	chicote	-0.11167673
-4.3469048	fatos	-0.16814321
-4.519169	direi	-0.11167673
-4.519169	amplia	-0.11167673
-4.240604	pensamento	-0.13899289
-3.8900068	linguagem	-0.20683771
-4.519169	atreve	-0.11167673
-3.8164191	pedaços	-0.3337193
-4.240604	ok	-0.13899289
-4.3469048	planos	-0.11167673
-4.0901747	queremos	-0.1116767
-4.519169	dispersar	-0.11167673
-4.519169	núcleo	-0.11167673
-4.3469048	casco	-0.11167673
-4.519169	morcego	-0.11167673
-4.0901747	muro	-0.11167673
-3.9786592	sangue	-0.35302114
-4.519169	camuflado	-0.11167673
-4.519169	suspeitaria	-0.11167673
-4.240604	presença	-0.13899289
-4.519169	chef	-0.11167673
-4.240604	mistura	-0.11167673
-4.0901747	laptop	-0.11167673
-4.0901747	definitivamente	-0.11167673
-4.0901747	funciona	-0.13899289
-4.240604	tensorflow	-0.14849393
-4.3469048	roda	-0.1116767
-4.519169	gráfica	-0.11167673
-4.519169	pizzaria	-0.11167673
-4.519169	afeganistão	-0.11167673
-4.3469048	vestes	-0.11167673
-4.3469048	cliente	-0.11167673
-4.519169	perguntando	-0.11167673
-4.519169	ambulante	-0.11167673
-4.519169	bananas	-0.11167673
-4.3469048	treinador	-0.11167673
-4.3469048	treinamento	-0.11167673
-4.240604	vestem	-0.11167673
-4.519169	tobogã	-0.11167673
